#ifndef _ACTIVATION_H_
#define _ACTIVATION_H_

#include <cmath>
#include <fstream>
#include <iostream>
#include <iomanip>
#include <cstdlib>
using namespace std;

#include "ap_fixed.h"

// try <32,16>?
//typedef float Poly_coeff_t;
//typedef float weight_t;
//typedef float MLP_inp_arg_t;
//typedef float MLP_out_arg_t;

typedef ap_fixed<16,8> Poly_coeff_t;
typedef ap_fixed<16,8> weight_t;
typedef ap_ufixed<32,16> MLP_inp_arg_t;
typedef ap_fixed<32,16> MLP_out_arg_t;


MLP_out_arg_t Activation(
    // input arg for non-linear function
    MLP_out_arg_t z
);

void mlp(
	MLP_inp_arg_t x[784],
	MLP_out_arg_t y[10]
);

const Poly_coeff_t sig_c [3] = {0.5, 0.26, -0.035};
//const Poly_coeff_t tanh_c [3] = {0, 1.04, -0.28};

const weight_t weights_1 [784][25] = {
	{-0.05066737,0.061660692,0.037601113,-0.08017259,-0.0047941282,0.045753762,-0.076215364,-0.07426371,-0.010382146,0.006698966,-0.07695145,-0.06949984,-0.0021988824,-0.070786454,0.061721116,-0.03197729,0.03702458,0.0643803,-0.026954837,0.016414694,-0.051215935,0.041983873,0.025895447,-0.04104396,-0.004235111},
	{0.077645004,-0.043063186,-0.083171174,0.059971556,-0.04485672,-0.01559335,0.004283674,-0.013675906,-0.04142849,-0.04412102,0.061045185,0.014243118,0.012126893,-0.022303164,0.079593,0.011059433,-0.03204363,0.05790606,0.07661782,0.012796894,-0.07985152,0.084219664,0.05231215,0.056408316,0.006109193},
	{0.019549184,-0.004851781,0.0031080619,0.08520703,0.036305882,0.038655683,-0.05285913,-0.06386403,0.07819231,0.07721092,0.08233622,-0.017543815,-0.06496131,0.022967905,0.07677415,0.07035889,0.06880911,-0.0005788505,-0.037216686,0.014061794,-0.05954611,-0.071074195,0.021465316,-0.0598289,0.05626732},
	{-0.0815467,0.08598934,0.07545291,-0.0090454,-0.065429196,0.0498935,0.008050516,-0.067420565,-0.052046597,-0.0316893,0.0793318,-0.010216162,0.06303288,-0.06351165,0.050856173,-0.030411482,-0.05271031,-0.020025373,-0.016464606,-0.04023574,0.039786324,-0.019482613,0.009966612,-0.056492187,0.015858158},
	{-0.03943298,-0.05587761,0.06010814,-0.010198891,0.06079468,-0.022312507,-0.03395471,-0.036782462,-0.033724375,0.064028054,0.014287323,0.048411176,-0.030204576,0.025541276,0.07771286,0.055040836,-0.08087523,-0.070560575,-0.038845155,-0.07008436,0.04534088,0.034836806,0.06322697,-0.0073855966,-0.05608039},
	{0.02532819,-0.033382345,-0.04773716,-0.061902665,0.06932078,-0.052870013,0.0045486614,0.025318563,0.008440614,-0.035959747,0.07573849,0.070183575,-0.06697772,0.025530234,0.07370195,-0.036984194,0.037989736,0.045314446,0.032646134,0.009088457,-0.015822925,0.05010186,0.027291447,0.024451643,-0.066930614},
	{-0.006850131,0.06018518,-0.049988955,-0.027027912,-0.043898754,0.060268283,0.017362244,-0.03307976,0.018288612,-0.03835636,0.02570492,-0.084192544,0.03247588,0.011162996,0.030293457,0.07492715,-0.05178239,-0.01680138,0.03189645,-0.07796073,-0.027248248,-0.06410611,-0.036464702,-0.055269457,0.0726493},
	{-0.03585766,-0.08172998,0.0017553195,-0.028950758,0.0558607,0.08153738,-0.010195568,0.046704188,0.01551301,-0.0019766241,-0.016415142,0.059836403,0.038955092,-0.043707453,-0.005974829,-0.081045754,0.059032142,-0.076441385,0.048460513,-0.010215834,0.067443684,-0.06935762,0.06718512,-0.05664222,-0.08431385},
	{-0.072739765,0.053435802,-0.06981434,0.05609651,0.041342393,-0.07079111,-0.054841112,-0.05707223,0.061702937,-0.07264191,-0.023196325,-0.006154284,0.07755326,-0.061432138,-0.011933893,0.026933342,-0.046930335,0.027907379,0.027760409,-0.08394675,0.043789282,-0.03884056,-0.028179415,0.03782711,-0.06222876},
	{0.06447536,-0.0089899,-0.030108646,0.021438003,-0.01729098,0.058381245,-0.0788249,0.007130459,-0.08470316,-0.05962062,0.02740115,0.054154217,0.028025627,-0.040213995,-0.0846645,-0.04649051,-0.050085213,0.0022447556,0.071397066,-0.0075286254,0.054842144,-0.0580673,-0.07396447,-0.07821761,0.015807442},
	{0.070436165,-0.085153624,-0.061185032,-0.025526065,-0.020570815,0.083856225,0.040943906,-0.017660663,0.071389556,-0.08356491,0.07057367,0.01359088,0.026042439,-0.015241489,0.053321272,-0.0013870299,-0.06762769,-0.07279855,0.010678329,0.058746845,-0.008354008,0.0048812106,-0.015181139,-0.014311016,-0.07941017},
	{0.08335346,0.03958477,0.012003534,0.04702978,-0.056279965,0.07120696,0.084551305,-0.001749754,-0.026679475,-0.010608435,0.020445772,-0.062429834,0.059650406,0.01567357,0.046597898,0.0012321919,0.026923344,-0.03428358,-0.055858146,0.016816474,0.08298877,0.07116404,0.016611129,-0.054382868,0.04380983},
	{0.011915109,-0.05543004,-0.019568043,-0.07210749,0.031513885,-0.0550693,-0.06685134,-0.001519086,-0.040423878,0.03444821,-0.046735767,0.088236034,-0.08109209,-0.0063747326,0.052003156,0.080509625,0.0033128446,-0.06177694,-0.052931614,-0.037638947,0.022197751,0.038295526,0.0654939,0.04749798,0.059695907},
	{0.04395103,-0.03431335,0.019262344,0.05370894,0.036264192,-0.04885514,-0.07449406,-0.07601584,0.0041008787,-0.02554603,-0.04567089,-0.0732348,0.08122775,0.052472755,-0.024313925,-0.025700456,-0.01094898,0.06281235,0.045803618,-0.03094254,-0.016321324,0.09513454,0.023033082,-0.05823453,0.06925685},
	{0.02092229,0.02186798,0.012944085,0.06912211,0.06457065,0.011367035,-0.066925675,-0.057617646,0.04266532,-0.0254657,0.04508235,-0.07815268,-0.0036932677,-0.023037683,-0.038230624,0.009906798,0.016486498,0.03587445,-0.045659233,-0.0032264509,0.026180722,0.010254504,0.005182698,0.04401623,-0.066783756},
	{-0.052114494,-0.08233525,0.057644747,0.016846623,0.0019550223,0.011492283,0.0582307,-0.07388832,-0.05925409,0.0656737,0.0062592393,-0.029421201,-0.025723694,-0.03046025,0.009995494,0.02534232,-0.06675398,-0.017055904,-0.06990272,0.011652858,-0.020450564,0.041826036,0.025098711,-0.009547013,-0.021438653},
	{-0.0659282,-0.02165959,-0.05049453,0.07397883,-0.0714972,-0.05141572,-0.04220263,0.070792735,0.054699227,0.053978086,0.028747037,0.06794366,0.02575276,0.0025500506,-0.02467877,-0.0540009,0.060309708,0.06561224,-0.07866826,-0.049121745,0.08457495,0.035878643,0.021014199,-0.0201554,0.004217021},
	{-0.07704114,0.025838941,-0.07561286,-0.03067867,0.008183122,-0.029522937,-0.045060135,0.01535815,0.042210326,-0.08294801,-0.046623293,-0.08440027,0.04361418,0.043651834,0.023274861,-0.06109748,0.075232744,0.03905131,0.07464379,0.02692607,-0.061638534,-0.07277075,-0.045288064,0.0019020885,-0.046856295},
	{-0.08354123,-0.033003666,0.036476366,0.069636226,0.04024428,-0.068206936,-0.058080193,-0.073122986,0.035633467,0.019176334,0.03189666,-0.079117626,0.08318706,0.017432183,0.050064355,0.058710873,-0.044057883,-0.027042244,-0.027846482,-0.07792808,-0.0586081,0.08335872,0.007425554,0.06404923,-0.07534289},
	{-0.00028839707,0.024111703,0.009747773,-0.053302858,0.0053332895,-0.048990607,-0.062051214,0.0011763051,-0.008796833,0.069307655,0.014784373,0.02903977,-0.0070204064,0.012355112,0.0125595555,-0.028385952,0.04186845,-0.015374951,0.075931475,0.07709685,-0.08542234,-0.014487885,-0.035117958,-0.0042114556,-0.040709652},
	{-0.055072986,0.018454783,0.0080969855,-0.083315946,0.035473377,0.0819228,-0.0758899,-0.038605686,0.051025122,-0.07290444,0.052316964,0.07973294,-0.08204519,-0.04668844,-0.0036196932,0.07034889,-0.033101995,-0.08488939,-0.06678942,0.0019527599,-0.04613731,-0.043854527,-0.06540838,0.06663658,0.021615773},
	{0.061346546,-0.014986329,0.0675005,-0.024485458,0.0638307,-0.03322443,0.08173181,-0.0013045296,0.029323585,-0.076875255,-0.03829657,0.007981636,0.058704197,0.004143782,0.018284567,0.08428416,-0.045020014,0.039866835,0.06781101,0.057725355,0.008685589,0.060743496,-0.011475317,0.023567967,0.07864848},
	{0.042144105,0.053760976,-0.015205599,0.027096532,-0.031315073,-0.010470234,0.0068795085,-0.023600712,0.011859335,-0.020672001,0.07276131,-0.06891317,0.07166205,-0.043961935,0.075506374,-0.06254059,0.02187229,0.08023183,-0.014039129,0.0038608238,0.010063954,0.07506567,-0.07290536,0.06372689,-0.08181469},
	{-0.07173489,0.04999174,-0.012342587,-0.08587854,0.08431107,0.022941537,-0.022438802,-0.056406055,-0.071773775,0.03396204,0.065367,-0.074337095,-0.058116924,0.05771202,-0.054059274,-0.06290644,0.06548184,0.03964898,0.060367122,-0.061301634,-0.012664802,-0.070424095,-0.05010866,-0.026781563,-0.058221743},
	{-0.058809586,0.042865068,-0.07067486,0.023325413,-0.046098195,-0.00012458861,-0.06829837,-0.07719485,0.05199945,-0.03606015,0.02151379,-0.028036427,0.008113638,0.07046154,0.024766982,-0.031293906,-0.027333047,0.059062317,-0.046593726,-0.049817696,-0.06929456,-0.041009918,-0.053827506,-0.031914398,0.0031462535},
	{0.0232687,-0.07660694,0.07403138,-0.01224038,-0.030336108,-0.05409767,0.076374054,0.078645274,0.050228223,0.042004526,-0.014231496,-0.07389033,-0.039790083,0.011804804,0.04428409,0.034239948,-0.040258612,-0.059908427,0.059321746,-0.00870388,0.017892271,-0.07638164,0.020307384,-0.0120747015,-0.06474241},
	{0.058273137,-0.014472857,0.020448461,-0.037790567,-0.038285833,-0.04176886,0.002533771,0.061226368,-0.009790853,-0.043688994,-0.01076816,-0.034606185,-0.05202042,-0.032746498,-0.016329095,0.019346938,-0.0030527934,-0.009488881,0.020025782,-0.04162854,-0.049439136,-0.041631456,0.07517575,0.003538549,0.05701174},
	{-0.006489992,0.063335046,0.037976287,-0.01846318,0.06909715,0.03328535,0.032740995,-0.042719267,0.026988283,0.016731225,0.04183002,0.016655378,-0.067520596,-0.06884884,-0.049316663,0.057222635,-0.06777688,0.0794905,0.0006799549,0.081037074,-0.076311804,-0.063310534,-0.07337999,-0.066167854,-0.0016213879},
	{-0.07491685,-0.044674926,0.021662511,-0.037985995,-0.053947885,-0.018922575,0.06495473,0.03591737,0.07921961,0.010328926,0.015974686,-0.033482544,-0.038435247,0.007859282,-0.023666888,-0.05686465,-0.011099368,-0.008715935,-0.074566685,0.04192111,-0.057405658,-0.06370461,-0.046418317,-0.07704962,-0.05172116},
	{0.06674875,-0.008009046,-0.026347835,-0.06578039,0.06602155,0.014376432,0.066029444,-0.06515388,-0.039168812,-0.061331242,-0.030907732,-0.05720202,-0.077777475,0.049238488,0.04278198,0.051286563,0.016501322,0.01524853,0.026574105,-0.0635297,0.062247306,0.040048584,0.012342729,-0.072465844,-0.023457743},
	{-0.0021933615,0.0387882,0.0014297813,0.0513971,0.075045794,-0.01045908,0.0009907708,-0.00069761276,-0.012275629,0.0028335825,0.073513165,0.019322626,0.021944009,0.036170453,0.04725288,-0.06675979,0.047002286,0.06797865,0.0225074,0.051115572,0.012604579,-0.04095489,0.05873932,-0.04877633,-0.008525498},
	{-0.0041576624,-0.060772453,-0.04449194,0.030746117,0.0635649,0.084946856,0.0011373162,0.010197684,-0.076802574,0.03537467,-0.06815616,-0.055755034,-0.032822754,-0.021280482,0.08011027,0.017340362,-0.08001829,-0.005091049,0.079444855,-0.043465685,-0.00168892,0.048652843,-0.027749568,0.075610355,-0.07721482},
	{-0.009319013,-0.061544448,0.0013202165,0.042964816,-0.05593699,-0.059541386,-0.06276244,0.023116449,0.045679975,-0.03561066,-0.0016709638,0.07559346,-0.039380793,0.04715113,-0.07470274,0.06515386,0.06458377,0.019630997,0.050693043,0.0812271,-0.056128595,0.03705129,-0.06619448,-0.013209299,0.006070253},
	{-0.07943705,-0.02817927,-0.05948296,0.0061956095,-0.03727326,0.035026334,-0.010275802,0.041012213,-0.039573602,0.07240927,0.075895995,-0.073082946,0.011100846,-0.0701593,-0.054547895,0.01155412,-0.08457513,-0.07856826,0.04392884,0.041804995,0.030634923,0.013604381,0.034740202,-0.06426541,0.037372787},
	{-0.0072436333,-0.12437644,0.049972787,0.003603249,-0.081266485,0.06593574,0.05189831,-0.05131218,-0.045619942,-0.032389823,0.10880395,0.09175343,-0.061169866,0.035909373,-0.011473466,-0.020404534,0.08067875,-0.08060917,-0.02940369,0.04520593,-0.05751815,-0.049408387,-0.012639794,-0.086465195,-0.05029358},
	{0.03618826,-0.069668815,0.09224813,-0.054208018,-0.087778926,-0.060624532,0.0048974454,-0.1339899,0.08183193,-0.07687607,-0.018596359,0.082091086,0.062351257,-0.049711976,0.033240765,-0.023759436,0.11030829,-0.08588465,-0.028571928,-0.00035972465,-0.066575944,0.14103523,-0.046581823,0.046747554,-0.08483651},
	{0.014002246,-0.020727014,-0.05401834,0.055835888,-0.11044301,0.029783472,0.066322766,-0.015635133,-0.072964355,-0.013387272,0.09512733,0.08427724,-0.001889208,-0.07887595,0.022933433,0.06594941,0.02606914,-0.014371481,0.07746421,0.07018676,0.011572991,0.0036272597,-0.07845623,-0.041273,-0.01433735},
	{-0.03620175,-0.061156213,0.10557369,-0.08820667,-0.08533844,-0.02151918,-0.048632436,0.020384131,0.011249395,-0.028348727,0.013898562,-0.079257146,-0.054032527,-0.046999004,0.05292079,0.022350505,0.028401418,0.066620626,0.07451197,0.023526073,-0.00798203,0.032405343,-0.017938148,0.051036194,-0.079862945},
	{0.060992207,-0.039467826,0.05263556,-0.04785076,-0.09072142,0.042192973,0.03259057,0.0017926134,0.06801391,-0.05032933,-0.066465795,0.05889676,0.10494624,0.018665535,-0.008727366,1.4640898e-05,0.09140427,-0.07809601,0.086681694,0.052567318,-0.033847015,0.12764388,-0.06410658,-0.043204013,-0.0716532},
	{0.024997514,-0.12371908,0.052187912,-0.056616046,-0.07788291,0.05554172,0.041912053,-0.048771665,0.057442404,-0.10558492,-0.07393355,0.026321026,-0.027203005,-0.04404389,-0.0037008224,-0.058897242,0.1352828,-0.016363317,-0.08954525,0.084113225,-0.044301715,0.18494439,0.04626123,0.054163724,0.06573121},
	{-0.075092375,-0.13221173,-0.01049383,0.035010114,0.030782599,0.04126285,0.0073522124,-0.033873126,-0.04080955,0.007576034,-0.025842262,0.031453274,0.02786282,-0.094972685,0.085768454,-0.0037391142,0.043521818,-0.1089804,-0.05745283,0.045572724,0.05807481,0.08850496,-0.08686616,0.008454862,0.009876761},
	{-0.037531156,-0.038036324,-0.035830814,-0.011566296,0.017642902,0.016804405,-0.021876838,-0.01827966,0.038176168,-0.1268039,0.022651944,0.052845165,0.010580938,0.0005927652,-0.0384012,-0.07654739,0.028407594,-0.05625425,-0.08882952,0.08294526,-0.01871248,0.09174467,-0.003897846,-0.06799619,-0.033604503},
	{-0.054467954,-0.02557509,-0.031067846,-0.056737736,-0.11811625,-0.08281958,0.030460024,0.0033609446,0.08362591,0.02138776,0.008425598,-0.05672451,0.06664148,-0.06143926,0.052712362,-0.046704996,0.14622432,-0.058770068,-0.040649503,-0.0862461,0.00113204,0.0032396412,-0.11495972,0.03765708,0.010320713},
	{0.068593055,-0.024996633,0.059608236,0.030985361,-0.07940694,-0.07721178,-0.0011269165,-0.07802521,0.04147558,-0.020749016,-0.04175926,0.06713863,-0.073566265,-0.03661072,0.040731203,0.010427669,0.018918728,-0.022490531,0.04190915,-0.015640734,0.030611923,0.11475062,-0.124043934,-0.08040351,0.021772224},
	{-0.074642494,-0.0008701477,-0.07689185,-0.03004937,-0.07899166,-0.016266938,0.038659677,0.01815408,-0.10692,-0.012022046,0.06882125,-0.0060457843,-0.0858027,-0.027709372,0.09726659,0.040038396,0.02907594,-0.098592445,-0.017782776,0.08692451,-0.05333995,-0.0050127893,-0.027100964,-0.041535605,-0.070926435},
	{-0.014720111,-1.6482682e-05,-0.014352867,-0.052409545,0.052577972,0.02293165,0.037514444,-0.06852716,0.089274205,0.007997917,0.026549904,0.03072136,-0.01789002,0.024399977,-0.05332193,0.05459285,0.037593286,0.01728221,0.070213884,0.024687838,-0.005861825,0.03624792,0.046434652,-0.044386532,0.020485476},
	{0.067101665,-0.030789267,-0.030769313,-0.08395667,-0.092887565,-0.07270644,0.06060931,-0.06790128,0.013766856,-0.0376583,0.0838945,0.08356489,-0.05424898,-0.070597515,-0.0128254,0.017178126,0.051096458,0.07048949,-0.056876075,-0.06991589,0.016909152,0.09753357,-0.086352676,-0.06530957,0.055831898},
	{0.038093723,-0.0006409339,0.039077137,-0.07363879,0.023884574,-0.00027157902,-0.06238185,0.05079099,-0.029848717,-0.10901662,-0.014570167,-0.050901987,-0.041194387,0.025987204,-0.040070962,0.042823486,0.10379119,-0.08503248,-0.006360092,0.0846728,0.04353697,-0.034456167,0.04650052,0.033091772,0.014101645},
	{-0.03304286,-0.031446926,0.11925363,-0.05567439,-0.094811626,0.056292545,0.05407917,-0.028725972,0.1027394,0.054386344,-0.045755737,-0.019832632,0.07576191,-0.066157795,-0.0067319605,0.04025387,0.007548867,-0.08594436,0.053933974,-0.07423382,-0.0027101738,0.06051056,-0.054646615,-0.07223893,0.07181399},
	{-0.004824634,0.05374208,-0.02942883,-0.008607994,-0.000349957,-0.053337596,0.00852925,-0.029875236,0.051863056,-0.08980266,-0.015203822,-0.08623326,0.030710531,-0.03532026,-0.0022575513,0.053593043,-0.07163797,-0.028909275,0.041283563,-0.009933997,0.04565128,-0.025471972,0.045600716,-0.0037724597,-0.05567569},
	{0.040279925,-0.021898983,0.012287899,0.013641524,-0.028088689,-0.086176746,0.074984685,-0.0689776,-0.057054754,-0.06827967,0.077848054,0.044070184,0.037750207,-0.040959775,0.025989266,0.016299652,0.063522495,0.06772992,-0.007029064,0.035716385,0.04891547,-0.01697635,0.05208173,-0.047050938,0.049276214},
	{-0.06446527,0.03521153,0.07907522,0.03273562,-0.06824582,-0.07108505,-0.066250905,-0.01730454,0.0627194,0.022232177,-0.012446113,-0.06806223,-0.011420708,0.008220293,-0.010175144,0.08464803,0.028847748,0.061875608,0.040853873,-0.08328322,-0.035429776,0.016536206,-0.059553474,0.057165414,-0.009073946},
	{-0.035653528,0.065920234,0.0016710386,0.06338593,0.063974574,-0.012008876,0.080162644,-0.030819092,0.0247178,0.011343002,0.027713962,-0.05305345,0.046169117,-0.070639215,0.007126659,-0.06799013,-0.07226659,-0.046116754,0.062894076,0.007709533,0.037656344,0.04874909,-0.05061526,-0.01802019,-0.07426291},
	{0.085448876,-0.035528135,-0.06671566,-0.037246067,0.018035278,-0.038114283,-0.08555015,-0.053869512,0.026784398,-0.073332295,-0.04775145,0.020566113,-0.004571289,0.07911834,0.07269655,0.018628076,-0.02730732,-0.04329243,0.060600698,-0.019580394,-0.047338746,-0.024813075,0.054497167,-0.0034544244,-0.0015236139},
	{0.0011433512,-0.029188752,0.0045970827,-0.0017118305,-0.025951065,0.039106265,0.07643479,0.060366377,0.027620196,0.045014083,-0.0019908473,-0.0039475113,0.07239501,-0.06981931,0.016077362,-0.057823803,-0.05049471,0.008313991,-0.052259643,-0.060503334,-0.03535796,-0.07985183,0.045739725,0.009569205,-0.03153664},
	{0.013215385,-0.0118114725,0.008073889,0.020218708,0.03603527,-0.06330308,-0.059797015,-0.035877556,-0.04964752,0.06619358,-0.053894483,-0.033135094,0.048685163,-0.018728562,-0.059533253,-0.06683268,0.015751146,0.04590343,-0.041001026,0.07347803,-0.050061807,0.083360046,-0.061441362,-0.03847699,0.024545312},
	{0.054805472,-0.05093314,-0.030900277,0.038630262,-0.0838577,-0.044123277,-0.026769575,0.021134779,-0.075678565,0.035491154,-0.001793161,-0.029009894,0.014748402,0.021214694,-0.031620413,-0.03474371,0.030012414,0.08587828,0.034954086,-0.074791804,0.084471315,-0.018479273,-0.005963348,-0.01383996,-0.06642903},
	{0.017498605,0.0090030655,-0.06342751,0.06303844,0.03133107,-0.0091457665,-0.04557472,0.07748464,0.045921817,-0.006847687,-0.040354356,-0.03933336,0.06322579,0.063538015,0.039955676,-0.044390712,0.016074881,-0.006242059,-0.08354505,0.026556917,0.008541226,-0.065291405,0.052065402,0.05030507,0.080724806},
	{0.018908503,-0.063944235,-0.04353592,-0.06420785,-0.052663982,-0.062464964,-0.020511998,-0.055475425,-0.003618032,0.08365269,0.039494433,-0.034378454,0.05974799,0.06597784,0.031429037,0.06336339,0.060106456,0.046357837,0.080420375,-0.047803495,-0.02190231,0.081340104,0.034080572,-0.00025283813,0.022249056},
	{-0.08285914,-0.0798423,-0.05228068,0.039978597,0.018132858,-0.02238488,-0.025677318,-0.0064193564,-0.038231675,-0.046387453,0.029679777,-0.062730506,-0.05243675,-0.055521835,0.05017466,0.08418662,-0.036592342,-0.003824974,0.07501182,0.012019495,-0.010599269,-0.00573049,-0.054624382,0.070337616,0.0046405597},
	{-0.0013052241,0.018883063,-0.04135518,-0.06489592,0.04786633,-0.05007663,0.057080645,0.043968625,-0.04642146,0.07897966,0.00057648774,-0.06066712,-0.03033661,0.027431672,0.030826602,-0.032008704,0.082368046,0.056469973,0.025118547,-0.021595212,-0.06750461,-0.0031729725,0.016132658,-0.042125657,0.047308624},
	{-0.07930473,-0.01968653,-0.027376845,0.006306045,-0.014749152,0.06811361,-0.051629692,-0.08530144,0.0088150175,0.046216793,-0.027852846,0.045397647,-0.05607725,0.0050078453,0.08156675,0.037458237,-0.00885815,-0.062299903,0.057730567,-0.030187799,-0.025216285,-0.0126364175,0.064186655,-0.03660445,-0.0069289054},
	{0.06381164,-0.089188084,-0.0106084375,-0.028217057,-0.03715881,-0.055801723,0.056061532,-0.099328354,-0.069326006,-0.02508391,-0.06269923,-0.0016357979,-0.018077364,-0.07866844,0.0049979487,-0.045791265,0.1058497,0.07171524,0.08532176,0.098592445,-0.0048254533,0.11707291,-0.019171964,-0.016026502,0.0009608752},
	{-0.07609484,-0.157652,0.05260879,0.011273092,-0.019252744,-0.060533345,-0.007990714,-0.010870462,0.048478767,-0.04738702,0.11152914,0.04275359,0.017866062,-0.06507692,0.017596394,-0.0515216,0.14613125,-0.06804129,-0.034736373,0.11910114,-0.073242255,0.13031337,-0.1230207,-0.020674495,-0.075402215},
	{-0.10061375,-0.1774288,0.098506905,0.035315268,-0.21744545,-0.009260333,-0.05945832,-0.109896295,-0.04446307,-0.025465347,0.11800896,0.023405991,0.02339286,-0.11980364,-0.060864255,-0.04963151,0.10827784,-0.038151886,-0.04671761,0.10010541,0.02314704,0.298998,-0.07441701,-0.07563827,-0.06664137},
	{-0.12814213,-0.2249637,0.03216164,0.052848738,-0.2409488,-0.083953746,-0.12308921,-0.077780314,0.03725822,-0.16309114,0.05750606,0.01835306,0.13450707,-0.110437885,0.02648583,0.07324268,0.15014471,-0.020924013,0.020073414,0.21304739,-0.07228628,0.33488697,-0.021786982,-0.04954906,0.02339872},
	{-0.19012,-0.37049782,0.13927805,0.042252865,-0.19254152,-0.043204445,-0.13358405,-0.19876038,0.013162923,-0.28753686,0.07882257,0.047109146,0.2233008,-0.2827746,0.0551115,0.03656311,0.20712851,-0.029169226,0.12479454,0.24660876,-0.1851011,0.3232418,-0.074152686,0.07227236,0.0019227519},
	{-0.11724116,-0.22152005,0.124894395,-0.05755452,-0.3463488,-0.092640445,-0.20468599,-0.17749634,0.071957506,-0.2834134,0.09115693,-0.03216489,0.09396178,-0.20627448,0.065850906,0.066692404,0.2911799,-0.029225716,0.15493955,0.12159312,-0.23025326,0.43643928,-0.020318713,0.06662074,-0.10630311},
	{-0.06492064,-0.17553116,0.17426212,-0.023970317,-0.45685896,-0.19401199,-0.11016088,-0.2861905,0.056416932,-0.22557339,0.070070006,0.15313843,-0.025449252,-0.26533693,0.0554166,0.2634577,0.31926244,-0.18634361,0.12478587,0.18006793,-0.29696888,0.40285596,-0.08177313,-0.06926957,-0.09526514},
	{-0.064336516,-0.15283978,0.07564122,-0.058274496,-0.42436323,-0.10811096,-0.053589,-0.22289442,0.15492478,-0.20027208,0.1129486,0.08083594,0.047313005,-0.27074006,-0.00968603,0.3065384,0.31902954,-0.11182683,0.038325373,0.21297327,-0.24861617,0.45469788,-0.18749693,-0.065080985,0.06344741},
	{-0.03378118,-0.07073354,0.08758357,-0.18197145,-0.42595723,-0.12511496,-0.1309527,-0.17844889,0.05022782,-0.27063313,0.12123743,0.09476256,-0.064717285,-0.4076024,0.07906604,0.3032183,0.31737086,-0.15246946,0.19424097,0.08978027,-0.2408009,0.42605692,-0.2415431,-0.19876337,0.030411562},
	{0.102810994,-0.058473684,0.03662546,-0.168888,-0.30438805,-0.19273485,-0.16533555,-0.21253304,-0.07407583,-0.10983841,0.05671332,-0.051298458,-0.019507624,-0.25536975,0.07468051,0.3389929,0.43980584,-0.2617092,0.010096979,0.015603832,-0.21750344,0.29728904,-0.21617156,-0.18777929,0.16377631},
	{0.031625405,-0.08324059,0.031620447,-0.23986843,-0.34530038,-0.12048942,-0.06084458,-0.22840537,0.03821632,-0.13649036,0.1821637,0.015232276,-0.04950006,-0.3558049,0.15686876,0.46253383,0.4670726,-0.22201902,0.012487981,0.040549815,-0.23321947,0.31802356,-0.111100204,-0.018304247,0.003383572},
	{0.013664684,-0.3094842,0.20402062,-0.24556431,-0.36303887,-0.151357,-0.13445988,-0.26294813,-0.07070534,-0.19049492,0.011183279,-0.012194566,0.14097913,-0.26264745,0.1521533,0.31249693,0.4347054,-0.17070512,-0.08786721,-0.011221082,-0.2363773,0.22958298,-0.14904769,-0.09166803,-0.031310678},
	{-0.14290737,-0.29174975,0.26096305,-0.18551664,-0.3286152,-0.22751077,-0.10779704,-0.11430567,0.06999645,-0.20571414,-0.05169811,-0.00023363993,0.20757249,-0.1139945,0.1340345,0.37105718,0.2914659,-0.06964417,-0.021367652,0.114020094,-0.113017105,0.25614432,0.010861979,-0.021689655,-0.11885266},
	{-0.14511375,-0.4174876,0.26955822,-0.29110077,-0.26324272,-0.1026597,-0.06832653,-0.1432028,0.17430842,-0.16458996,-0.067414016,-0.028808327,0.20599698,-0.025911056,0.13334243,0.27391118,0.35334924,-0.07700036,0.09569281,0.102446616,-0.067382425,0.2225715,-0.029914396,-0.06173827,-0.05621313},
	{-0.08391834,-0.27704993,0.17429893,-0.17840202,-0.16728683,-0.17623243,-0.068862624,-0.053322,0.101919726,-0.24085884,-0.017890593,0.016705152,0.23882663,-0.13576704,0.08014611,0.15600817,0.21622106,-0.06823123,0.01158498,0.06742457,-0.12601212,0.122229874,-0.05118247,-0.055842627,0.009002461},
	{0.0020381485,-0.20443255,0.07033813,-0.10904318,-0.09317859,-0.13681222,0.013401673,-0.17029876,0.14307877,-0.17966509,0.004665817,-8.76531e-05,0.11402778,-0.027509356,0.05809962,0.21915488,0.16494386,-0.008022534,-0.05145112,0.04238187,-0.108737774,0.10970508,-0.020030353,-0.07692911,-0.07162924},
	{-0.0952352,-0.16338646,0.06265837,-0.051718216,-0.10586025,-0.007927861,-0.07385387,0.02311729,-0.02360742,-0.09424473,0.047817945,0.05431149,0.029641612,-0.066501915,0.08839668,0.054440174,0.04741296,-0.032893598,0.08079261,-0.018045492,-0.03731073,0.0536314,-0.043172978,-0.046320368,-0.010685441},
	{0.011377879,-0.015944326,0.035024714,0.005544813,-0.11609215,0.0025225473,-0.037739772,0.026580425,-0.010428134,-0.12363374,0.060782142,0.05529505,0.032031845,-0.028586397,-0.009375383,0.114117265,0.06786495,-0.031910677,-0.05774491,-0.055308152,0.055446394,0.07992271,-0.052374437,0.08357567,-0.017222872},
	{0.049023416,-0.08868346,0.07239232,0.06161201,-0.10185072,0.0448677,-0.0023920948,-0.033356357,0.06178648,-0.08516276,-0.021502962,0.047021504,-0.052595984,-0.029944364,-0.0645276,0.020615106,0.034862045,0.010723127,0.081451766,0.036460675,-0.029369377,0.01440657,-0.049660202,-0.029378816,-0.0414462},
	{-0.043435734,0.07925624,-0.057518385,-0.040794194,-0.013866345,-0.008923883,0.016044654,-0.003973067,0.010793882,-0.07119657,-0.05717258,-0.025855072,-0.09988088,0.02685737,-0.037195228,0.047046818,0.0772962,0.03412153,0.036706887,-0.069095574,0.06490228,0.0601226,-0.03667767,-0.00872169,0.073537886},
	{0.005559705,0.08251229,0.058222935,0.025423177,-0.02596661,-0.062184367,0.071901426,0.08320607,-0.047769435,-0.03491025,0.032301396,0.02344329,0.04120095,-0.00054425746,-0.042626787,-0.01630316,0.0011265129,-0.060184114,0.0459525,0.07326977,-0.08046887,-0.08073021,0.069805086,0.022190422,0.023759365},
	{0.051968887,0.07451743,0.07473074,-0.047306202,0.014511868,0.018000953,-0.0030525848,-0.06296304,0.05761707,0.022452518,0.06265569,0.06589644,0.06037447,0.017582372,0.044691652,-0.06588058,-0.047171388,-0.0607004,-0.034066837,0.049102366,0.026202917,0.013379663,-0.040454205,-0.01635141,-0.0424861},
	{-0.013583139,0.037198044,-0.077747725,0.030462466,0.07798232,-0.052041158,0.0007442236,0.03050384,-0.08131157,0.034273535,0.010025024,0.06143391,-0.080054566,-0.047988188,0.027871676,0.012878649,0.06726137,0.0058968067,0.056303397,-0.04605163,-0.03153966,-0.05368538,-0.052070294,-0.055136472,-0.048997503},
	{-0.08051,-0.026666377,0.013892382,0.03390923,-0.04863983,0.064019844,0.032590777,0.046916842,0.012539044,-0.028159868,0.046849236,0.033198312,-0.049508333,-0.0060806125,0.06399618,-0.057786845,0.04680468,0.022252403,0.042950273,-0.043674644,0.0448329,0.010706767,0.072828114,0.05132851,0.038273536},
	{-4.7256468e-05,0.024929155,0.062559165,-0.067656144,-0.08204928,-0.03519717,-0.05109897,-0.04443141,0.01200603,-0.084697016,0.05970124,-0.041233867,0.07551741,-0.025047392,0.00052195386,-0.018913427,-0.086029604,0.023154324,-0.039735306,0.07416408,0.08342681,0.013902595,0.06833265,0.027452247,0.083160646},
	{-0.010641422,0.048261628,0.07360656,0.033154245,-0.030717146,0.034613464,-0.08184635,-0.053315755,-0.039808348,-0.031953536,-0.05805544,-0.057719328,-0.031426832,-0.0026759675,0.06702811,0.045077275,-0.013111094,-0.076224335,-0.049038444,-0.022619287,-0.06752166,0.05447254,0.08568479,0.021410523,-0.007703786},
	{0.043033816,0.038175873,-0.080435164,-0.019810542,0.025276441,0.061549887,-0.019678855,-0.08296236,0.003706027,0.01444884,0.025709493,-0.036243565,-0.05155017,0.017544089,-0.01689382,0.07455053,-0.06576347,0.029934876,0.08027002,-0.04243229,-0.029867942,0.045432325,0.0013382396,-0.011503648,-0.039690077},
	{-0.014628319,0.017932305,-0.0035924937,-0.08026928,-0.06385728,0.022583842,-0.0049974876,-0.09456776,0.03586685,-0.009960573,-0.044717565,-0.02910431,0.031256545,0.08695056,-0.009576714,0.09116284,-0.07378622,0.06542195,0.059398692,-0.03693152,-0.034688268,-0.032162555,-0.0132922055,0.029182576,-0.02818372},
	{-0.042842854,-0.025958544,0.064902864,-0.07773493,-0.15285279,-0.10464001,-0.07744315,-0.07931008,-0.037097014,0.018277058,-0.028659532,0.09519123,0.0372574,-0.104740225,0.001332884,0.01713575,0.13128385,0.01857033,-0.006000811,-0.00980089,0.07996795,0.032317135,0.0108867185,0.05450611,-0.013207913},
	{-0.08849345,-0.27367833,0.0293767,0.098932095,-0.20748878,-0.08103231,-0.036079034,-0.15790313,-0.021697143,-0.029243277,0.111654386,0.07341892,0.0030095512,-0.20793942,0.0048032133,0.04614342,0.087687895,0.045363136,0.0792262,0.1369103,-0.029604424,0.21511325,-0.1210276,0.02064196,-0.079198785},
	{-0.14817613,-0.2877681,0.07197249,0.17733172,-0.31466922,-0.09228933,-0.012614635,-0.2190531,-0.01826402,-0.1338221,0.1786196,0.16226764,0.08148429,-0.32479057,0.076197214,0.095985845,0.0037055544,-0.107793465,0.070181504,0.07548239,-0.11032521,0.36764956,-0.024055786,0.025951201,-0.07464395},
	{-0.12644383,-0.16559613,-0.04113696,0.2499184,-0.28566718,-0.26511785,-0.14213654,-0.22376865,-0.0825449,-0.13887352,0.04455886,0.06716391,0.05877866,-0.32408518,0.10114567,0.22994249,-0.16045678,-0.13280201,0.19116844,0.23643424,-0.2136458,0.44565243,-0.10925346,0.2271159,-0.05827216},
	{-0.12978454,-0.1320907,-0.05261574,0.29948315,-0.44072708,-0.24212936,-0.2889197,-0.31850332,0.029215597,-0.3323293,0.21983989,0.245724,0.020134598,-0.4410676,0.07992849,0.26257154,-0.10923718,-0.18834132,0.2443971,0.23555318,-0.20240922,0.4653821,-0.011285603,0.29707587,-0.1310709},
	{-0.075929515,-0.014955836,0.02300021,0.28583616,-0.44540438,-0.23412736,-0.2614428,-0.31946966,-0.023596799,-0.34416988,0.10419483,0.16851412,-0.0922029,-0.44223526,0.17726634,0.4710442,-0.05340214,-0.19812304,0.16949171,0.14551687,-0.29897407,0.50858307,0.1642849,0.32440102,-0.24091738},
	{0.017664315,0.02805312,0.046692435,0.21885557,-0.46833822,-0.36521223,-0.2674685,-0.37276447,-0.28405547,-0.2688144,0.0824858,0.2427634,-0.23179546,-0.5860763,0.1702716,0.52386904,0.12070063,-0.41942236,0.018222889,0.07578292,-0.12790832,0.66944224,0.12615058,0.27971014,-0.17185517},
	{-0.024075635,0.17604212,0.039605767,0.19756664,-0.63273513,-0.46063972,-0.2365395,-0.5234643,-0.17734753,-0.27802646,0.08498327,0.19591628,-0.2697896,-0.7173279,0.1673409,0.6455399,0.24140011,-0.5789595,0.04492653,0.059372075,-0.2825836,0.67583495,-0.039868075,0.25499654,-0.26162395},
	{-0.018977392,0.13044722,-0.00923113,0.054589003,-0.5259636,-0.31937414,-0.28986093,-0.46667814,-0.21021003,-0.34181312,0.043680873,0.1603847,-0.2312701,-0.8017081,0.34731767,0.6999415,0.25620776,-0.5943149,0.17527993,-0.15415941,-0.18790513,0.55620617,-0.15057518,0.09123031,-0.20294215},
	{0.06568063,0.11331821,0.02261365,-0.032872047,-0.560566,-0.2864709,-0.34229067,-0.46223953,-0.2373856,-0.17043172,0.12753573,0.041890025,-0.11928278,-0.6151053,0.3110632,0.5186843,0.36146367,-0.5537121,-0.017888146,-0.24639513,-0.08061841,0.4715454,-0.06575401,0.1897512,-0.14711346},
	{-0.055230122,0.12854032,0.0504579,-0.07007794,-0.46413767,-0.347815,-0.32295525,-0.41740263,-0.26785332,-0.2601751,-0.105083235,0.0812905,-0.070087664,-0.5691279,0.20173071,0.64012706,0.16504303,-0.46487588,0.101184025,-0.21573526,-0.21896653,0.42369446,0.026769647,0.11762749,-0.117387146},
	{-0.09206048,0.019021234,0.10218631,-0.12539418,-0.35013285,-0.37127745,-0.23259847,-0.3293752,-0.2085471,-0.4086331,-0.12835859,0.062420864,0.0798082,-0.41539383,0.27461162,0.6205591,0.30430445,-0.4652339,-0.042867675,-0.1249736,-0.1236789,0.25908375,-0.026144173,0.09691637,-0.0900076},
	{-0.104116544,-0.1961968,0.20367484,-0.22449298,-0.29695514,-0.4552691,-0.28713977,-0.24659464,0.0052121226,-0.28775853,-0.13297476,0.043184124,0.26676148,-0.22754566,0.17937545,0.47145557,0.51692796,-0.47572297,0.011430818,0.040804,-0.03034727,0.25269318,-0.052935474,0.10078156,-0.076359145},
	{-0.24326432,-0.22190966,0.35802042,-0.36728096,-0.30038968,-0.41584527,-0.25974038,-0.14692394,0.30384564,-0.25500545,-0.12981577,-0.083300374,0.3925571,-0.15729704,0.17162637,0.4352596,0.5014183,-0.2454094,0.15631492,0.03160446,-0.038263578,0.2058489,-0.09816167,-0.043024767,-0.13523836},
	{-0.2252341,-0.19947997,0.34864715,-0.25281215,-0.16977532,-0.47633502,-0.26835823,-0.09936197,0.30367768,-0.25056314,-0.03714373,-0.039488196,0.32906902,-0.15847433,0.18768495,0.467277,0.6043903,-0.17941786,0.16281842,0.11385506,0.031903386,0.032792013,-0.04215852,-0.017688753,-0.12513602},
	{-0.10503825,-0.32606772,0.34418803,-0.2534791,-0.1960715,-0.42016667,-0.21186484,-0.20872201,0.19053529,-0.23103443,-0.059843726,-0.009778987,0.43981683,-0.1848003,0.13801862,0.42809597,0.50291455,0.073348954,0.112902604,0.15629826,-0.030526057,-0.08972343,-0.090710096,-0.2216709,-0.14397824},
	{-0.17111537,-0.30682063,0.2996423,-0.08833608,-0.23643677,-0.29388487,-0.19821419,-0.26495576,0.14861019,-0.16762799,0.042792995,-0.09276144,0.4323607,-0.12276912,0.12099282,0.32940853,0.40257585,0.08681515,0.07230245,0.08793718,0.009617389,-0.07894837,-0.15263076,-0.12546445,0.036285754},
	{0.013411895,-0.26202878,0.20510975,-0.018024439,-0.13673107,-0.16902728,-0.03381097,-0.14642607,0.13933899,-0.0124757895,0.060694426,-0.06282129,0.31445098,-0.05536567,-0.06668649,0.055907395,0.17393994,0.04449993,0.11082068,0.028971316,0.06420846,0.0074279564,-0.01653153,-0.05365977,-0.058348697},
	{-0.100919776,-0.08734677,0.11994904,0.011784007,-0.09196148,0.0128422575,-0.052397862,-0.06242597,-0.024431277,-0.1039913,0.076584734,0.06795675,0.15512572,-0.04178851,0.032337673,0.02472654,0.10961357,-0.035185445,0.105376445,0.025809363,0.018701693,0.09629285,-0.008648643,0.07560892,0.0032753577},
	{0.002323064,-0.046373364,0.05247346,0.035557523,-0.033870444,-0.024761127,0.077262215,-0.0911906,-0.030945847,-0.0034256652,-0.0009423981,0.016043236,0.058315117,0.051065665,0.065749645,-0.004610263,0.060148295,-0.048571695,0.05613652,-0.02565786,0.072385095,-0.024414722,0.008907213,0.02197788,-0.010006477},
	{-0.0855901,-0.07975431,0.081894845,-0.044339456,-0.07923429,-0.024251632,0.06337594,-0.054793987,0.08593642,0.08931901,-0.079869546,0.067965746,0.03420215,-0.016118564,0.069975674,-0.060485635,-0.068700925,0.053541493,-0.0050226124,0.0822418,-0.0070374487,-0.0838763,0.02160641,0.0020490596,0.036418628},
	{0.015080348,-0.019181713,-0.049652614,0.074568614,0.05919765,-0.019418284,0.0142033845,-0.017719902,-0.014867835,0.018243685,0.056683734,0.052032083,0.007765487,-0.08445004,-0.057704568,-0.01572162,0.0006791726,0.068774804,0.046368018,0.030782342,0.022456028,-0.07363989,-0.018596902,0.03296724,0.04903923},
	{0.015175186,-0.051874023,-0.050771695,0.004487723,-0.019268788,0.03372325,-0.068775766,-0.044620164,-0.01299195,0.039041504,-0.021003805,-0.021488458,0.045282587,-0.06191036,-0.046381213,-0.06830816,-0.06534216,-0.022583574,0.062471107,0.021845452,0.031129293,0.03731756,-0.030518044,0.06024249,0.03996873},
	{-0.061137743,0.013516701,0.07258292,-0.04518858,-0.064621955,-0.053154908,-0.0068034506,-0.001806536,-0.030075662,0.062939934,-0.0028284567,-0.042474087,-0.060305286,0.016569681,0.08385352,-0.033624046,0.03244464,0.009292531,0.0039019606,-0.008672559,0.05647761,0.026620224,-0.0052429,-0.043577965,0.0140807275},
	{0.0632789,0.015361159,-0.075005,0.060574867,-0.020772772,0.003787881,0.018915178,-0.024336876,-0.013874324,0.04976962,-0.0608404,0.014448351,-0.053901017,-0.04709127,0.048270334,-0.028557496,0.006083418,-0.041455686,-0.006655329,0.015939206,-0.064862214,0.041741278,0.035214987,0.004410303,-0.07532393},
	{0.07765657,0.025950255,-0.035133105,0.047406062,0.01719883,-0.06348725,0.07200804,0.021221245,-0.062959686,0.046914425,-0.102361664,0.030625097,-0.055989683,0.017027587,-0.05074345,0.060762465,0.065267235,0.021857478,-0.021241462,0.0653643,0.024806852,0.076829374,0.05984566,0.0137124965,-0.0024963168},
	{0.064608924,0.016773622,0.031249534,-0.08216941,-0.08621142,-0.07549461,-0.04093427,-0.048966482,-0.06550914,-0.05692777,0.03422162,-0.041602004,0.034186956,0.036024205,-0.061194908,0.0017296348,-0.061528925,-0.0046043214,0.05549706,0.031551175,-0.000439292,0.0016726747,0.017226113,0.013610055,-0.061240565},
	{0.10304713,0.038025968,-0.0052661635,-0.100522935,-0.097445585,-0.13571262,-0.09798052,-0.0030874975,-0.105439246,-0.06372836,-0.115802795,0.033116825,0.015931912,0.07255432,0.11402587,0.012406335,-0.026300944,0.05010747,0.071263134,-0.02873083,0.016342621,-0.05463342,0.018735938,0.0828721,0.025643319},
	{0.055485602,0.11642527,0.052987255,-0.061302856,-0.21534127,-0.112276986,-0.039251454,-0.11387473,-0.037110917,-0.11398619,-0.058690462,0.10697225,-0.06288045,-0.045344368,0.10191796,0.08715184,-0.0033387512,0.017625133,0.18194544,0.010654489,0.116805136,0.11952363,0.038232107,0.16033135,-5.892825e-06},
	{-0.0071833082,0.015742922,0.17983694,-0.009155395,-0.31694314,-0.37662902,-0.18647927,-0.23830913,-0.14415558,-0.19302444,-0.021522662,0.19668582,-0.03469225,-0.1433916,0.083189525,0.22108331,-0.13526513,0.037110142,0.09431741,0.04142384,0.13742156,0.20966835,0.0055694156,0.24503373,-0.2589513},
	{0.20554557,0.21139911,0.0111172125,0.09473751,-0.31367183,-0.45719582,-0.23457041,-0.28252694,-0.2114923,-0.24495831,-0.14216243,0.3230289,-0.29005522,-0.0795817,0.22725362,0.26318985,-0.18104659,-0.021794671,0.3374004,-0.012095189,-0.020599721,0.2973503,0.015226196,0.20189314,-0.26532724},
	{0.16091378,0.16611959,-0.09070421,0.29480964,-0.30126432,-0.42637196,-0.42061132,-0.35752997,-0.2095109,-0.23328845,-0.07891136,0.23939171,-0.3898728,0.05354072,0.19608846,0.30527633,-0.29217622,-0.046002638,0.39810112,-0.083268166,-0.038865253,0.2768454,0.09386495,0.24164832,-0.19419749},
	{0.08602642,0.11655432,-0.09389864,0.21208897,-0.33002993,-0.54452795,-0.35655886,-0.49073416,-0.29022413,-0.22539097,0.033675518,0.23475826,-0.32776582,-0.02515453,0.2978694,0.23247096,-0.1568777,-0.20272048,0.37255144,-0.05330176,0.021426179,0.22787976,0.08199274,0.25951472,-0.32089266},
	{0.18612282,0.23546357,0.03173282,0.17148407,-0.20483257,-0.4607472,-0.31058672,-0.38081047,-0.17067824,-0.07295119,-0.041592438,0.115034096,-0.4385438,-0.008087479,0.30134133,0.18239887,-0.025804507,-0.35413504,0.28239375,-0.15847848,0.19787052,0.22011162,0.3380648,0.43682763,-0.44648197},
	{0.29812902,0.12947503,-0.03659144,0.25074798,-0.24416095,-0.3744187,-0.17559,-0.38160855,-0.19936442,0.09752211,-0.05395143,0.23772505,-0.37183347,-0.07532102,0.29110017,0.08886453,-0.14248323,-0.20638275,0.13650255,-0.10433512,0.20118143,0.18982254,0.16539066,0.22024107,-0.28877932},
	{0.3399965,0.16455626,-0.015971886,0.19084139,-0.14777991,-0.32227537,-0.18095692,-0.497342,-0.1315818,0.09414124,0.018070675,0.17102508,-0.4680615,-0.17665048,0.24981385,0.20337997,-0.07914474,-0.09545319,0.10617065,-0.1550466,0.015922707,0.06766478,0.117413595,0.17906927,-0.20453046},
	{0.24261163,0.0398924,-0.08600681,0.25510526,-0.32826307,-0.26881963,-0.30890158,-0.56188184,-0.10345979,0.16795214,0.10842669,0.19154052,-0.29195935,-0.19410746,0.25780416,0.24111362,0.055990532,-0.19926925,-0.042416286,-0.15528935,0.08682126,-0.0015859718,0.24908833,0.12165026,-0.18467295},
	{0.123675086,0.080933385,-0.012671288,0.09815053,-0.28320748,-0.21137886,-0.42263907,-0.4250569,-0.17581634,0.24246906,0.06492154,0.09972644,-0.33119234,-0.25988835,0.31050393,0.21280476,0.13882288,-0.13561137,-0.16892982,-0.17845477,0.17013185,0.106093496,0.24464387,0.124697156,-0.04143476},
	{-0.08099829,0.062146522,0.0465935,0.15472847,-0.42527595,-0.27026987,-0.36068055,-0.46705997,-0.013479441,0.20713797,0.0020799232,0.013635642,-0.073752515,-0.15186004,0.27395275,0.27070922,0.034162853,-0.12402425,0.027891329,-0.13092598,0.18478994,0.11606281,0.13284175,0.17204161,-0.08261611},
	{-0.15581931,-0.056247264,0.05313917,0.13599545,-0.3050815,-0.17792423,-0.36636442,-0.4106656,-0.023635872,0.010199332,0.062505044,-0.006245853,0.03395631,-0.13771036,0.17578174,0.088534884,0.09606058,0.0025850637,-0.05624793,-0.059923492,0.09596886,0.03086218,0.08684681,0.0543011,-0.098535076},
	{-0.11800788,-0.0070633655,0.2573812,0.061949242,-0.38090748,-0.22909418,-0.17220369,-0.47680423,-0.017255919,-0.10125984,-0.08542574,0.065348335,-0.0137320645,0.08442263,-0.030746266,0.09129903,0.05189254,-0.003977234,0.020868089,-0.16097715,0.33277902,-0.045288686,0.0009280728,0.24059102,0.012923883},
	{-0.11818572,-0.07886963,0.29467943,-0.12122423,-0.31502408,-0.2729144,-0.09567779,-0.4487338,0.067068644,-0.13225439,0.048811518,-0.045435254,0.2139717,-0.053849794,-0.15521757,0.15502402,0.12639283,0.09190081,-0.050815754,-0.06236816,0.17443992,0.007865959,-0.0033851073,0.010399263,0.008312335},
	{-0.14103663,-0.09625203,0.26300582,-0.041101072,-0.29173446,-0.18838383,0.12810057,-0.47712788,0.06649879,-0.10981855,0.20925047,-0.06640614,0.28695375,-0.07848637,-0.04419712,0.18572529,0.0906468,0.37303057,0.09566915,0.04936046,0.04402787,-0.018778048,-0.23017605,-0.04542037,0.14870802},
	{-0.05632383,-0.15413022,0.19773732,-0.2087544,-0.29330358,-0.13074538,0.07360343,-0.40638807,0.19703001,-0.012177341,0.09054379,-0.19073482,0.4040733,-0.20973204,-0.10956044,0.22111405,0.28150755,0.31545627,0.026248626,-0.066272594,0.05599005,0.10940529,-0.15820903,-0.0014227029,0.17292672},
	{-0.056451585,-0.22206244,0.16950515,-0.32854587,-0.13579881,-0.026572688,0.05724553,-0.18737985,0.28946048,0.093829125,0.04227877,-0.26952195,0.4806371,-0.15182629,0.04470051,0.26561558,0.34473133,0.31191567,0.05813102,-0.111714564,0.05312374,0.100300126,-0.29944274,-0.094929755,0.032515526},
	{-0.10289947,-0.3049318,0.18881686,-0.30729508,-0.14167103,-0.03711668,-0.0299952,-0.08829839,0.2543231,0.17028417,0.08785256,-0.21792014,0.4885498,-0.13581733,0.029310293,0.21523194,0.34407547,0.17702919,0.1545962,-0.053708084,0.04251578,0.09437528,-0.23757477,0.017770585,0.041086283},
	{-0.10048491,-0.27160117,0.122837886,-0.10283206,-0.11682785,0.024040312,-0.055167828,0.029417824,0.06745743,0.1432569,-0.0706412,-0.026387006,0.3599055,0.03584557,0.07804471,0.003649661,0.2736398,-0.073206924,0.025075547,0.016218936,0.09626651,0.013612765,-0.015787775,0.016613375,0.027914552},
	{-0.090839796,-0.08147678,0.12544127,0.002038719,0.008388231,-0.008414113,-0.07604173,0.040861186,0.0944083,-0.028531112,0.0691342,-0.019606695,0.14261045,-0.01575696,0.055777017,0.010980254,0.13020338,-0.02022936,-0.07201603,-0.019107979,0.041409504,0.011960411,0.074222766,0.046919197,0.024994824},
	{-0.06669443,-0.05713398,-0.041841127,0.033058655,-0.099548854,0.07624935,0.06359488,-0.107628964,0.080637805,-0.051375683,0.004813917,0.09605304,0.07844399,0.075432815,-0.060662877,0.050697275,-0.0010183057,-0.06299483,-0.04043857,-0.01442934,0.08561724,-0.08188088,0.065366276,0.00670207,-0.0035856129},
	{0.08250403,-0.080455706,0.086762115,-0.030597119,0.012865103,-0.02374654,-0.036201276,-0.08817351,0.05529437,-0.03675475,0.002976778,-0.018134966,0.008526604,-0.0689845,0.021731976,-0.053305022,-0.05520954,-0.05846262,-0.081043944,-0.023711467,0.019242061,0.008344079,-0.051729783,-0.054915097,0.0026413333},
	{-0.016847782,0.07793704,0.045647144,-0.015827835,-0.059882287,0.015555985,-0.08461393,0.06482953,0.021540754,-0.027740493,-0.006817028,0.056950286,-0.023709103,0.04576409,-0.04207976,0.07010798,0.05642444,-0.04166326,0.056829393,0.059188068,-0.048006628,0.07541749,0.08572057,0.0066234916,-0.013495423},
	{0.0033481494,-0.08041935,-0.021079615,-0.016282462,-0.04297937,-0.042142797,0.052819356,0.006851569,0.069861114,0.007091306,0.01763492,0.051724344,0.032753006,-0.055160902,-0.07459833,0.020068899,-0.07736771,0.048201337,0.0249191,-0.08007793,-0.017643131,-0.020099431,-0.06730242,0.041199118,-0.010552831},
	{-0.05488225,-0.068993695,-0.03636411,-0.014777883,0.00072110567,0.037865967,0.07125197,0.048941415,0.05363583,0.07591866,-0.05946711,0.041773934,-0.013632129,-0.078280866,-0.057164617,-0.0008044111,-0.06288494,0.04391364,0.06874861,0.08289682,-0.0064207935,-0.05049882,0.05901912,-0.04852549,-0.07836194},
	{0.04417906,-0.03184015,0.10415474,-0.012705379,-0.07210341,0.05024253,-0.0145386085,-0.05352599,-0.061971765,-0.0014018464,0.0032024563,0.013686105,-0.100344345,0.024132743,-0.004064467,0.029204646,0.05202948,-0.016286599,0.05924034,-0.09562197,0.04217392,0.046418063,-0.0050213635,-0.006465871,-0.06129192},
	{0.083151594,0.21012972,0.12696335,-0.043729607,-0.14638299,-0.077281184,0.004227198,0.015111666,-0.021804068,-0.030623727,-0.17163502,0.11369792,-0.09120598,0.17404063,0.10082276,0.079881884,-0.045835834,0.009763829,0.08734008,0.049133502,0.050094265,-0.05610227,-0.019879349,0.06729547,-0.08537775},
	{0.21034339,0.4181119,0.17848364,-0.10148518,-0.16430807,-0.29511932,-0.15812194,-0.078996874,-0.13963456,-0.22834805,-0.2767191,0.21480152,-0.06698603,0.2478037,0.07264431,0.15958871,-0.07468468,0.12481884,-0.031699035,-0.11919203,0.20801443,-0.017588973,-0.016958414,0.112216204,-0.01835513},
	{0.26211116,0.34078094,0.102330245,0.0029365164,-0.23541236,-0.3220548,-0.16733037,-0.16945802,-0.1345138,-0.31139457,-0.2567657,0.13715614,-0.14486432,0.16469304,0.13883351,0.22586502,-0.077925585,0.13011983,0.14688922,-0.15273353,0.16704464,0.06684841,0.062159855,0.19791247,-0.17388482},
	{0.19785072,0.35068634,0.10407569,0.016743,-0.25786352,-0.39344656,-0.2623279,-0.2385151,-0.1062859,-0.28800634,-0.08939827,0.2338546,-0.18841743,0.07131838,0.19627689,0.2992632,-0.087976664,0.011925773,0.17319518,-0.069611706,0.11623228,0.07497916,0.014445384,0.29863313,-0.34422737},
	{0.18840492,0.1773854,0.2080041,0.15141755,-0.2675177,-0.3011125,-0.36916557,-0.026822193,-0.1806195,-0.13953136,-0.030957535,0.12021104,-0.0886141,-0.070663564,0.250171,0.262849,0.0040031783,0.038338806,0.24204381,-0.010082936,-0.0055355583,0.009989679,0.1701251,0.35328203,-0.49937692},
	{0.016965983,0.05643672,-0.016958525,0.15923648,-0.20156921,-0.28417155,-0.39741328,-0.122201785,-0.14928459,-0.103412636,-0.0731,0.037756927,-0.20829132,-0.0036669618,0.30996966,0.18623671,0.07911642,-0.07905742,0.19779389,-0.06556206,-0.08858714,-0.021193879,0.14144784,0.22100723,-0.49415964},
	{0.055110887,0.18778421,-0.07256851,0.15939234,-0.08019034,-0.34539858,-0.37887782,-0.1872421,-0.09116705,0.025984269,-0.13289857,-0.03840536,-0.14352874,-0.041486192,0.51336086,0.20462757,0.0010543833,-0.14514308,0.13127697,0.048781846,0.0009992585,0.06958542,0.2442873,0.21085586,-0.40965307},
	{-0.041136816,0.13141,-0.1317422,0.28451186,0.12474381,-0.2325614,-0.15426123,-0.21086282,-0.23490828,0.046677288,0.015902516,-0.039228227,-0.16153437,0.09471473,0.50327957,-0.12222339,0.025522733,-0.3870901,-0.14012933,0.026642378,0.07350297,-0.18300882,0.45150733,0.15080425,-0.11925436},
	{0.054942124,0.081737116,-0.08858153,0.1677225,0.08177032,-0.24727386,-0.032525565,-0.30453798,-0.11136939,0.10845219,0.20164922,-0.06681902,-0.11507896,0.09177292,0.48330593,-0.115848936,-0.015281639,-0.2587334,-0.12796831,0.18901946,-0.040132634,-0.11454918,0.34976453,-0.011558635,-0.024236191},
	{0.10835678,0.20040376,-0.17269827,0.14117639,0.08410297,-0.12123977,0.033169102,-0.31349838,-0.22494704,0.03620432,0.26799476,-0.076001115,-0.19672559,-0.0008892814,0.40460658,-0.3119314,-0.043374185,-0.20870659,-0.19807218,-0.039570805,0.06510256,0.014637256,0.33233,0.05548442,0.11356339},
	{0.13201609,0.17791551,-0.061023843,0.096421234,0.01162969,-0.07524503,-0.14306654,-0.18906645,-0.10568305,0.16896226,0.3071922,-0.036221176,-0.23846899,-0.01893986,0.4516093,-0.13678096,0.06469281,-0.11852679,-0.14827153,0.06387876,-0.018516278,-0.033124622,0.38911852,-0.062917754,-0.017819596},
	{0.13405484,0.20484528,-0.106494844,0.18060368,-0.13638657,-0.20834911,-0.13218051,-0.25771058,-0.02873275,0.1684742,0.12634265,-0.09054164,-0.17651844,-0.11833947,0.39237633,-0.15520409,0.079602905,0.08506146,-0.15996143,-0.03924746,-0.07158464,-0.05619557,0.35794884,0.0036219126,0.03904462},
	{0.031822074,0.14753704,0.10214788,0.16241433,-0.22423004,-0.1797139,-0.31631255,-0.36394247,0.041437108,0.064983904,0.111090586,0.092512235,-0.15796798,-0.028800623,0.42333275,-0.0045848857,0.068176806,-0.10079328,-0.18326034,-0.12123025,-0.0047958875,-0.07491296,0.38559058,0.119373776,-0.08983862},
	{-0.09235175,0.00530451,0.009099989,0.16894147,-0.12216372,-0.03520284,-0.4916911,-0.45851782,0.058255594,0.2218011,0.24727428,-0.011386426,-0.114320375,-0.036505863,0.3261378,-0.16615522,0.04498177,-0.0017247566,-0.13710558,0.016615469,-0.09930347,-0.09477213,0.2786144,0.18760972,-0.091002524},
	{-0.09361159,0.08810864,0.06683786,0.094800055,-0.09529692,-0.04856026,-0.43824077,-0.45361826,0.11392791,0.14242873,0.13821875,-0.021290347,-0.103776574,-0.02716797,0.21317144,0.03865309,0.044996127,-0.0058570104,-0.16419412,-0.16542302,-0.04250346,-0.18177296,0.1875158,0.110580385,-0.13279682},
	{-0.12814404,-0.03910293,0.09592178,-0.004148295,-0.19257781,-0.12764321,-0.32033256,-0.45182037,0.008870884,0.010106567,0.20224425,0.024120875,-0.04760578,-0.03354023,0.016269831,-0.099918626,-0.0006432724,0.14548999,-0.079241835,-0.08589064,-0.021862345,-0.09318776,0.13638234,0.15024702,-0.04101929},
	{-0.107951745,-0.13981472,0.03210854,-0.13115002,-0.18116678,-0.023678446,-0.11239494,-0.2733551,0.15374693,0.15275267,0.29461932,0.024733597,0.15155351,0.082038,0.021903023,-0.14141963,0.03212313,0.20089583,-0.105148524,-0.20736983,-0.024491245,-0.039524645,-0.052492447,0.025835026,0.026615195},
	{-0.18967132,-0.03256536,-0.066070385,-0.051120594,-0.15895896,0.17406073,0.0476317,-0.20468055,0.06930878,0.1356876,0.33715352,-0.12283028,0.1419059,0.026766852,0.11701161,0.037506115,0.06217457,0.36705124,-0.06959486,-0.07235536,-0.05500622,0.08051529,-0.11964557,0.01248935,0.13243628},
	{-0.10352717,-0.17068347,-0.21292157,-0.085570246,-0.07558097,0.20013598,0.04243005,0.11502148,0.23972635,0.29986885,0.21921863,-0.16172516,0.3487499,-0.027455585,0.20536849,0.0053089615,0.2604099,0.38122472,-0.060288347,-0.17582273,0.01778488,0.09303102,-0.14862506,-0.012840434,-0.02263823},
	{-0.20677687,-0.33867335,-0.09006258,-0.26125622,-0.107971616,0.081818044,-0.12575367,0.1932376,0.4084694,0.38626555,0.081777625,-0.33250093,0.45313597,-0.017350432,0.21528547,0.1960109,0.32533553,0.4399118,0.099916644,-0.16347581,0.059449114,0.1280999,-0.21787572,0.0006400878,-0.06747222},
	{-0.120236464,-0.32647946,0.12569995,-0.12946886,-0.18018809,0.054455932,-0.15899757,0.095932305,0.21957473,0.28174952,-0.09771813,-0.1264021,0.46487045,0.004316678,0.19910048,0.17649002,0.4217516,0.218116,-0.05253341,-0.19292252,0.14209156,0.15254502,-0.15756029,0.19747432,-0.14262967},
	{-0.13292336,-0.06432098,0.07516895,0.022722514,-0.04178579,0.06681783,-0.043662515,-0.0013359648,-0.047212426,0.17413409,0.07747244,-0.03279423,0.25466865,-0.06451424,0.118523836,-0.03406569,0.1059569,-0.0292521,-0.06742655,-0.035805695,0.1307708,-0.02931306,0.10158866,0.07335179,0.060629997},
	{-0.095623225,-0.102484606,-0.043049634,0.043176424,0.02507921,-0.0025478327,-0.075043604,-0.07243615,-0.027766459,0.0005111417,0.1005327,0.08208233,0.13630106,0.042269185,0.052928265,0.06667708,-0.044016887,-0.0681147,-0.008518338,-0.021797614,0.02587362,0.055404402,0.11362007,-0.024300518,-0.05277961},
	{0.029633421,0.0073387157,0.062260527,0.031270437,-0.024514958,-0.0141658,-0.019955782,-0.047349367,-0.020412352,-0.05207696,0.030307183,-0.032067988,0.044225395,-0.058571227,-0.042808384,-0.0011097573,0.04115828,-0.017324354,0.019146819,0.054906573,-0.046033546,-0.07876799,-0.062345892,-0.083520524,0.041110788},
	{-0.030472033,0.0028718784,0.007155858,-8.995086e-05,0.045693338,0.0781319,0.0027092025,-0.023108326,-0.0047881305,0.07046378,0.0063635707,0.07945399,-0.05331302,0.034201898,0.005066596,-0.055722468,-0.006916821,-0.058411628,0.036941655,-0.021285884,0.0056824237,-0.080855645,0.028548032,0.07127525,-0.022804052},
	{0.008510902,0.02442374,-0.024026377,0.07919821,0.036486544,0.037715543,-0.06606945,0.019544443,0.0017058932,-0.05029513,0.014624286,0.06109355,-0.02197518,-0.028174743,0.06956951,0.0010988797,-0.016625408,0.029513774,0.01493598,-0.07019441,-0.050386466,0.05570744,0.031180976,0.020735543,0.00963713},
	{0.067003794,-0.059423514,-0.0568222,-0.039415106,-0.047001652,0.03025566,0.08223012,-0.02044564,-0.016732465,0.0136918705,-0.0034087147,-0.03139435,0.070262596,-0.051764403,-0.027947087,-0.043041274,-0.046501886,0.016081505,0.001374172,0.02930399,-0.04724499,-0.08472063,0.022046678,0.0050067725,-0.06645993},
	{0.054869756,0.109139316,0.09640528,-0.08091997,0.0012676009,-0.045540042,-0.08057388,0.028318444,-0.041178036,-0.0469895,-0.07877868,0.091245495,-0.051341012,0.055997528,0.0052062944,0.10481277,0.040664844,-0.005481303,-0.040318437,-0.021181652,0.06372159,0.043925304,0.021323677,0.12283576,-0.09592475},
	{0.14724468,0.28788173,0.14158034,-0.045106176,-0.1390737,-0.027305614,-0.17421387,-0.13077678,-0.07761783,-0.29440778,-0.31745395,0.12395194,-0.04117089,0.18934672,0.08225592,0.2501339,-0.17383388,0.056013253,-0.07505565,-0.15714829,0.031894453,0.00092805823,-0.018162336,0.09300755,-0.0761639},
	{0.22398739,0.4718189,0.14691599,-0.015640382,-0.08877683,-0.04694549,-0.14231978,0.10054638,-0.11111635,-0.41793275,-0.29936984,0.09541992,-0.053873885,0.059318226,0.11289218,0.34235996,-0.068374984,0.13744426,-0.12702985,-0.23834313,0.1977705,-0.0770783,0.17595172,0.12625287,-0.27335975},
	{0.20142451,0.38260764,0.1670751,0.05602249,-0.2320652,-0.13177769,-0.2944938,-0.04334099,0.013466419,-0.36622506,-0.3067775,0.13770133,-0.055958018,-0.018938439,0.02570926,0.29987305,-0.059104774,0.116455466,0.0042352923,-0.16913792,0.08695765,-0.060682923,0.1762245,0.20046948,-0.54243094},
	{0.10533335,0.17570491,0.09852298,0.23766561,-0.2048372,-0.14876789,-0.23508623,0.033020582,0.095810235,-0.34218547,-0.115848765,0.13949677,0.06496538,-0.10850321,0.11772904,0.39245006,-0.009210807,0.03352167,0.045933627,-0.06835345,-0.070141464,-0.06637829,0.20796038,0.085032895,-0.60442895},
	{0.14987797,0.103298835,0.10861479,0.18687989,-0.23790157,-0.31121877,-0.19609113,0.069538675,0.043234758,-0.18259536,-0.07596147,-0.03698714,0.01518047,-0.100679,0.07794352,0.08052893,0.03352891,-0.1630239,-0.21586913,0.04241222,0.065589085,-0.25942332,0.39961287,0.089285165,-0.5214518},
	{0.02285228,0.110632405,0.078520775,0.118545204,-0.21000433,-0.38006398,-0.1422958,-0.022705885,-0.028911171,-0.19918731,-0.10515916,-0.062519565,0.13575985,0.024414346,0.09329793,0.17790386,0.0043672603,-0.27837184,-0.17481339,0.0777229,0.1690795,-0.11893946,0.2840771,0.0933958,-0.4002061},
	{-0.00030863693,0.12086851,-0.072280504,0.22212559,0.064358145,-0.10999035,-0.044267867,0.068217784,-0.19510178,-0.09468483,-0.053057775,-0.02571178,-0.09509129,0.03578551,0.1796506,0.02557246,0.1840806,-0.2082363,-0.3034666,-0.0076694977,0.12899329,-0.14740212,0.27516186,0.06549045,-0.26514685},
	{0.05639719,0.09515333,-0.1609107,0.21622643,0.061157417,-0.1476736,0.05783104,-0.034318246,-0.24467055,-0.1419999,-0.12491582,0.0036389101,-0.14591838,0.052349724,0.19748361,0.06263468,0.043188263,-0.23937473,-0.33228692,0.10175612,0.17834684,-0.007262811,0.38385242,0.117705405,-0.09073286},
	{-0.041652292,0.11455495,-0.10183136,0.2630039,0.08114434,0.019339634,0.17012528,-0.104151875,-0.29496914,-0.055072837,-0.02197618,-0.05486901,-0.10533866,-0.028221704,0.15856159,-0.21160501,0.14502753,-0.39930463,-0.14219715,0.17238408,0.064027764,-0.009921986,0.39672914,0.2052087,0.10827302},
	{-0.10277782,0.24317394,-0.10222458,-0.014618458,0.04600465,-0.1710608,0.17989564,-0.12658182,-0.2863662,-0.09266674,0.019985938,-0.14068864,-0.2768399,-0.00062305527,0.004012024,-0.36053732,0.13366264,-0.4558593,-0.27245793,0.10581916,0.024999958,-0.096565425,0.2997068,0.10728156,0.108268626},
	{-0.048400875,0.062358823,-0.15195483,0.08011402,0.042397533,-0.026863864,0.24678773,0.053649813,-0.29459172,-0.14871475,-0.021088615,-0.032066353,-0.15205339,-0.00038565305,-0.15062414,-0.32002914,0.14096114,-0.40125802,-0.12638909,0.15376027,0.0080130035,-0.043811634,0.27697533,0.18850382,0.24042132},
	{-0.10237647,0.15220997,-0.06342065,0.11754065,0.062211394,-0.10559286,0.12795484,-0.14435673,-0.37975496,-0.031944577,0.16250768,0.04177681,-0.20522875,0.02966428,-0.20266603,-0.37098026,0.055367794,-0.3639901,-0.05129218,0.12492452,-0.16778071,-0.28848797,0.2256105,0.1665913,0.1896834},
	{-0.12979344,0.22434896,-0.030041337,0.09365228,-0.011653246,-0.010966693,0.084380925,-0.14738864,-0.29212362,-0.061699063,0.08372758,0.12582222,-0.17472534,0.022155171,-0.11371963,-0.19366865,0.16542403,-0.49521434,-0.048199262,0.037876483,-0.01271483,-0.112224646,0.34881637,0.09701411,0.17105746},
	{-0.104566425,0.09125159,0.06294767,0.009249285,0.15362419,0.015575364,0.056296334,-0.14742209,-0.2583486,-0.03254064,0.00018179034,0.02076653,-0.14354363,0.15533778,-0.2722221,-0.13802056,-0.025470024,-0.45980805,-0.04690264,0.0033793566,0.026219333,0.014726802,0.25496206,0.22197372,0.07225131},
	{-0.15326205,0.14729941,-0.09702927,-0.07261062,0.16098669,0.08103175,0.0142257,-0.19786869,-0.15677364,0.025959061,0.04538914,-0.028788729,-0.16284072,0.031129628,-0.14075154,-0.05592013,-0.037295327,-0.32537714,-0.077468686,-0.050552387,-0.10567202,-0.025125965,0.14354628,0.21446954,0.03667005},
	{-0.047222454,-0.005897592,0.028737154,-0.02913403,0.23214412,0.22345218,-0.085491434,-0.101257294,-0.039818462,0.07815403,0.09731159,-0.13839683,-0.08750299,0.09205856,-0.15523459,-0.23177126,0.08366925,-0.18598227,-0.1600886,-0.08274711,-0.086114064,0.04233118,0.1950733,0.10437011,0.034146175},
	{-0.0351668,-0.016854733,-0.0736934,-0.062828094,0.024198636,0.031601842,-0.059696082,-0.11842302,-0.14901988,0.2207711,0.06449866,-0.012525581,-0.014576197,-0.0137163885,-0.032597292,-0.18399185,0.11539781,0.014098529,-0.17978713,-0.09924564,-0.0353446,0.02269917,0.14895692,0.19501989,0.06869191},
	{-0.13885495,-0.10222046,-0.10666276,0.12453147,0.028584978,0.16505925,-0.02708676,0.04228976,-0.092010394,0.08969488,0.10269809,0.062583685,-0.21226531,0.041785706,0.03754175,-0.07144528,0.019464316,0.17813018,-0.11605942,-0.15793623,-0.017032988,0.04192264,0.024625743,0.17892613,0.18647173},
	{-0.22268215,-0.16878207,-0.020750972,0.11952346,0.12782346,0.26983425,-0.18822554,0.14994378,0.23547503,0.25281516,-0.01814978,-0.13230433,-0.076865025,0.036996655,0.26031637,0.035910577,0.0861062,0.36569655,-0.17592327,-0.124309115,-0.00095244346,-0.022662483,-0.02765246,0.013591278,-0.025375202},
	{-0.21615657,-0.40423992,0.089961104,-0.024196384,0.1444572,0.20187956,-0.41424558,0.17935294,0.4008755,0.44619146,-0.0022852474,-0.18507308,0.27508956,0.023748027,0.5339563,-0.11858713,0.29098043,0.49558052,-0.023156092,-0.23787245,0.2016743,0.036783833,-0.1123555,0.048770383,-0.054168765},
	{-0.191931,-0.5879809,0.07372651,-0.2609481,-0.0922934,0.19809149,-0.4696616,0.20229903,0.19644874,0.56896824,-0.033893377,-0.06937712,0.503511,0.053224858,0.28908595,-0.15890996,0.4638363,0.2881135,-0.114680864,-0.15290466,0.24942824,0.06305635,0.043024644,0.21513404,-0.21309234},
	{-0.110718146,-0.3308916,0.13655871,-0.048529513,-0.049093094,0.037007775,-0.15857026,0.09964924,-0.026833441,0.3709796,0.13803707,0.04815595,0.29707456,0.122035444,0.08206622,-0.16564249,0.42576793,-0.0017003852,-0.19574042,-0.16605273,0.29852805,-0.055419773,0.23716186,0.1069109,0.029297618},
	{-0.04310038,-0.13370255,0.032246884,-0.052706208,-0.08599322,0.033735864,-0.13537878,0.13395055,0.054148097,0.09161244,0.049521893,0.015384997,0.11195745,0.0107216695,0.008549267,-0.080691345,0.13011272,0.026611986,-0.08102742,-0.048934188,0.21416987,0.02822865,0.122810245,0.1192641,-0.120959744},
	{-0.079708986,0.06906366,0.06841181,-0.0687479,-0.056474745,0.010392459,-0.02469778,0.059210926,0.013687331,0.034127247,-0.07774313,-0.020575106,0.05245334,-0.073815025,0.056209717,0.01846733,0.009042786,-0.07826619,-0.04422038,-0.038226053,0.0072564995,-0.057252675,0.04458282,-0.017105768,-0.036514625},
	{-0.01082239,0.024716802,0.069165826,-0.042175934,-0.06991505,0.038631793,0.023986889,-0.014684637,-0.03951539,0.040915933,-0.08580913,0.02464591,0.04432964,-0.024888918,0.07767204,-0.024754245,0.06356484,0.07749184,0.051480096,0.06554247,-0.035253756,-0.047751766,0.07915136,0.026765866,-0.0161866},
	{0.08794821,0.020753734,0.018986585,0.0644856,-0.056649126,0.051998544,-0.05627302,-0.044214856,0.013921582,0.007172614,-0.08150024,0.03310834,0.008407463,0.0341018,0.03313192,-0.0060730255,0.07204378,0.029751133,-0.028177962,-0.012132902,0.07808868,0.07186126,0.07864456,-0.045837194,-0.07375545},
	{0.06516495,0.09218116,0.02190436,0.0869648,-0.032593425,-0.040617302,0.049283076,0.021981418,-0.0909826,0.016429788,-0.022663003,0.020716118,-0.045620587,-0.051323567,-0.02665263,0.05358603,-0.024068002,-0.046681445,-0.022313856,0.029660169,-0.06835237,-0.019409802,0.08425528,0.04548292,-0.0023632264},
	{0.13529591,0.21564324,0.14447123,-0.00950774,-0.09308273,0.12812482,-0.052974366,0.040963884,-0.1535616,-0.20238619,-0.10437158,0.07982541,-0.003632666,0.07191663,-0.006128107,0.05032317,-0.0951185,0.04018879,-0.184571,-0.06359771,0.054555062,-0.005629676,0.071863234,0.018613216,-0.028457668},
	{0.3382901,0.4299539,0.12998356,-0.115729354,-0.24711585,-0.029674644,-0.1935412,-0.12969187,-0.2137876,-0.4149016,-0.34631136,0.27366066,-0.13347945,0.16688263,-0.031095218,0.29993016,-0.3528231,0.14348015,-0.05385627,-0.14066167,0.07694904,-0.14899075,0.0689892,0.10655153,-0.15139854},
	{0.3692696,0.32602668,0.11200034,-0.07171188,-0.26289704,0.011291523,-0.30630898,0.07360544,-0.025428154,-0.44817483,-0.35812894,0.2007834,-0.17205012,0.05091946,0.026937397,0.27323118,-0.36234894,0.17999753,-0.23045258,-0.08032883,0.026825488,-0.2815497,0.16117589,0.11608614,-0.44411233},
	{0.1385582,0.18704405,0.114390224,0.19728154,-0.2646246,0.06283782,-0.23529053,-0.006366591,-0.024855437,-0.37908098,-0.2757322,0.08001478,-0.06273358,-0.13920645,-0.08056275,0.32071322,-0.17447291,0.0117085455,-0.23397626,-0.11522744,0.032954916,-0.2706723,0.32022792,0.13219683,-0.58411753},
	{0.118723355,-0.02925007,0.11459261,0.19449697,-0.1428856,-0.08555947,-0.152613,0.015379015,0.06140485,-0.31806618,-0.02126423,-0.082667835,0.060102195,0.0022620668,0.08481952,0.13908483,-0.15177606,-0.072935015,-0.3791728,0.004240497,0.07934447,-0.29277143,0.33195865,-0.040601183,-0.5007269},
	{-0.022211263,-0.08960124,0.033699524,0.24323867,-0.058259193,-0.15753011,-0.10722147,0.05097948,-0.04691725,-0.14969839,-0.09364902,0.04632417,0.14368422,0.03318297,0.08959941,0.10510168,0.037460245,-0.22663565,-0.4252627,0.028591592,0.050417654,-0.35909843,0.38729414,0.081985444,-0.35930315},
	{-0.078785196,-0.014743937,0.07450968,0.2828335,0.018985514,-0.1138706,-0.00013163922,0.15273722,-0.019446528,-0.14386886,-0.08309498,-0.073579684,0.08660463,0.028799893,0.16993026,0.2211097,0.0281106,-0.21957192,-0.374485,0.11974844,0.16400717,-0.27337158,0.41042122,0.12310542,-0.23403877},
	{-0.11173211,-0.01150216,-0.013723831,0.26277104,-0.0067278324,0.092882015,0.12721427,0.13415633,-0.19931951,-0.14963056,-0.1356706,-0.09957632,0.05220352,0.0018275605,0.14897977,0.122291915,0.10438447,-0.36566254,-0.33072022,0.120810136,0.10774901,-0.06679444,0.35140696,0.16348772,-0.069243744},
	{-0.079352774,0.020971559,-0.10071237,0.31876066,-0.036397077,0.10282799,0.06095157,0.09339983,-0.16322504,-0.15910353,-0.09151961,-0.1273215,-0.0009851691,0.019077936,0.03414811,0.107361145,0.12009109,-0.33879414,-0.21817233,0.019284517,0.088524826,-0.14395107,0.23827551,0.23467197,-0.047684383},
	{-0.057729837,0.14208944,0.023028115,0.12737024,0.01692438,0.040704373,0.16385499,0.07441299,-0.3534936,-0.21963198,-0.12014974,-0.13795957,-0.2401146,-0.0013592251,-0.22590949,-0.1116588,0.1802261,-0.3607543,-0.22855856,-0.08975794,0.064115435,0.020306846,0.17216882,0.2282787,0.1762428},
	{-0.06156168,0.15401106,-0.1143228,0.14391333,0.01252195,0.048612542,0.1732309,0.06612379,-0.42028922,-0.13170944,-0.1446432,-0.021725887,-0.23985961,-0.045219608,-0.25689554,-0.35122463,0.1437763,-0.43224794,-0.06519274,0.1312852,-0.031820275,-0.10417793,0.1535091,0.21884662,0.056769848},
	{-0.13623416,0.18096687,-0.07073322,-0.118322894,0.09956744,-0.019511266,0.30554566,0.0012392576,-0.3678848,-0.11301391,-0.10987737,-0.08691298,-0.28763124,0.042330526,-0.32326627,-0.3637656,0.24804701,-0.4368411,-0.080159985,0.07689617,-0.11985074,-0.020777764,0.026630824,0.29758108,0.20127423},
	{-0.0145855155,0.18151104,0.08728761,-0.062143773,0.1632799,-0.15184042,0.13999453,-0.16683838,-0.35960862,-0.13507907,0.0068810307,-0.040698502,-0.09366418,0.0643494,-0.404064,-0.5151597,0.22186881,-0.5976995,-0.0699104,0.20104347,-0.07034256,-0.13387655,0.13677244,0.25238955,0.31948718},
	{-0.07665416,0.22219555,0.005900327,-0.13518089,0.30713344,0.037061684,0.31485504,0.062344,-0.30107632,-0.20241728,0.07349986,-0.00038200058,-0.11110294,0.06049385,-0.4026726,-0.21060994,0.14724475,-0.46896735,-0.18164866,0.07388419,-0.034549035,-0.087920785,0.24642888,0.15394938,0.24603644},
	{-0.0982348,0.23388551,0.17217231,-0.19578002,0.33530107,0.19452071,0.21791002,0.06790653,-0.21229349,-0.07550744,-0.11300962,-0.0803527,-0.12672034,0.014082167,-0.2733027,-0.047640372,0.03769025,-0.3970505,-0.10975278,0.00553197,0.011495116,0.01143345,0.19672436,0.16138387,0.16801007},
	{-0.086835094,0.20457156,0.09106702,-0.039781034,0.28452736,0.26097903,0.07259584,0.07979344,-0.21291937,0.055296198,-0.009879009,0.032149754,-0.10513801,-0.036673922,-0.2710257,0.06961665,0.01812793,-0.34587258,-0.22903931,-0.032918416,-0.066146985,0.045796275,0.17011419,0.10283643,0.11740472},
	{0.017240219,0.075173415,0.014660239,-0.11234557,0.24404033,0.19178748,-0.028271472,-0.0057024397,-0.25477308,0.12144525,-0.11798895,0.05870346,-0.15425019,0.006676858,-0.07337256,0.06658077,0.059237294,-0.18896583,-0.074157275,-0.04390201,-0.026025767,0.15901151,0.21198408,0.10959615,0.014144475},
	{-0.046534058,0.10927824,0.10535915,-0.03937222,0.1737415,0.22408262,0.02278199,0.23473634,-0.211885,0.051927008,-0.11947132,-0.09548957,-0.14901559,0.06974028,-0.07110157,-0.018969921,0.23006926,-0.0726295,-0.12112977,-0.0970467,0.10853589,-0.02371585,0.12577471,0.055733707,0.14458288},
	{-0.23050193,-0.12652211,0.007187776,0.17078854,0.14652762,0.088747196,-0.0988484,0.24011767,-0.1048276,0.108436435,0.03652812,0.04031839,-0.2924556,-0.09811626,-0.009688402,0.07710083,0.31503418,-0.06489512,-0.1003829,0.010602403,0.009187716,0.035956375,0.15236832,0.035993066,0.10427272},
	{-0.46821052,-0.13882813,-0.04781421,0.1662627,0.1785339,0.09601073,-0.13342026,0.19726491,-0.001606192,0.08973477,-0.08347661,0.055871624,-0.20459114,-0.10177845,0.18944982,0.051117033,0.23218073,0.26007327,-0.11076058,-0.07765007,0.017723855,-0.072268516,0.10597516,0.17734686,-0.07959321},
	{-0.54715663,-0.48538965,0.1777552,0.053365804,0.21865901,0.32492805,-0.3870996,0.13769877,0.22303693,0.276885,-0.041303292,-0.030468384,0.2384435,0.11611853,0.3291359,-0.07076381,0.3235007,0.36897016,-0.15246484,-0.1665578,0.15142111,-0.09090657,0.13031697,-0.00095852325,-0.011420424},
	{-0.5613966,-0.7875176,0.35932973,-0.17792858,-0.01060376,0.46123505,-0.526607,0.10381852,0.33774248,0.36428896,0.0740253,-0.06501678,0.61814886,0.012917373,0.34656906,-0.16870297,0.48966601,0.066815525,-0.262191,-0.26460037,0.34187865,0.10219971,0.15259302,0.18297951,-0.004086568},
	{-0.2897316,-0.39983356,0.297905,-0.24154611,-0.13013814,0.15968393,-0.4104423,0.100793034,0.018869974,0.5310855,0.06715248,-0.06748621,0.5241849,0.038105037,0.3345424,-0.14477916,0.44476774,-0.040218502,-0.18028292,-0.28432548,0.37143952,0.16130449,0.24915224,0.30062264,-0.12320845},
	{-0.15300685,-0.05484889,0.11344245,-0.08682846,-0.06832427,0.0020265253,-0.08982185,0.098499194,0.06671421,0.24031608,-0.013583855,-0.009869031,0.14122874,-0.0031197784,0.120408155,-0.02417319,0.16540675,-0.024565576,-0.11877432,-0.079964496,0.19654357,0.030115703,0.04604762,0.1931072,-0.124603756},
	{0.028532285,-0.017196128,0.048550766,-0.0848875,-0.018992562,0.0854556,-0.059195872,0.01612474,0.060881298,-0.02401075,-0.06737741,0.04602738,-0.051157128,0.039349597,0.045938775,0.08890452,0.023057204,-0.047452763,0.035020135,-0.036028918,0.0122669,0.056468364,-0.0014787724,0.0098126205,-0.021335945},
	{-0.014103601,0.021910308,0.014786341,-0.037711963,0.07050126,0.0817467,0.053970832,0.056916952,0.025572006,-0.024051102,-0.07930763,0.067662045,0.0798287,0.021696225,0.037138946,-0.06982932,-0.013667033,0.000608098,-0.008974842,0.046132356,-0.069696434,-0.05359621,0.0248902,0.06675909,-0.006845199},
	{-0.07918502,0.010629458,-0.048161607,-0.06193527,0.04609375,-0.0033197554,0.06324671,-0.028749168,-0.03642163,0.035635155,0.012230036,-0.005644197,0.08300136,-0.06662183,-0.10444937,-0.04163615,0.075834185,-0.018807612,-0.056811094,0.047374487,-0.068848245,-0.061554693,0.018806037,-0.049000204,0.0055845533},
	{-0.04208483,0.019241836,-0.033558838,0.03967599,-0.123548895,0.010492064,-0.045476645,0.04732531,0.015226978,-0.1462241,-0.006691269,-0.05386979,-0.01158261,0.052871533,-0.05250398,0.05045886,0.02347919,0.08764125,-0.019891173,-0.020674597,0.022605969,0.016550466,0.08546357,-0.08319505,-0.054126125},
	{0.18592018,0.15585001,0.2410672,0.11198183,-0.13192952,0.21323118,-0.031719435,0.053894013,-0.11979585,-0.18046705,-0.18726297,0.19569406,-0.08267611,0.11126573,-0.066881984,0.3097167,-0.16999997,0.08875674,-0.13051686,-0.09639935,0.19669029,-0.16801354,0.17298962,-0.029132476,-0.05223826},
	{0.47150326,0.400201,0.21954322,0.047619965,-0.41772276,0.027411913,-0.12347658,-0.086834386,-0.19624487,-0.4427005,-0.3827536,0.25532365,-0.20781721,0.10866354,-0.017981974,0.30125338,-0.34427992,0.08435684,-0.23302153,-0.04445251,0.016220827,-0.12788491,0.20735624,-0.0024575721,-0.30717972},
	{0.25029567,0.21315576,0.12357518,0.15394466,-0.35823035,0.091919646,-0.08835297,-0.09540819,-0.16527462,-0.28646842,-0.32430094,0.13229406,-0.088428766,0.055663988,0.09236744,0.28487617,-0.37139285,0.19992238,-0.2927243,-0.0043108054,-0.009004667,-0.28377846,0.20831516,0.08649356,-0.40365624},
	{0.25950187,0.092308946,0.12341732,0.20677423,-0.13944043,-0.0014706954,-0.14616083,-0.06466418,-0.104769856,-0.25415182,-0.12695044,0.08837739,0.001434958,-0.0118185915,-0.10021256,0.15071234,-0.28317922,0.18546784,-0.30033648,0.053826585,0.05952459,-0.4189227,0.33636644,0.023514653,-0.31552622},
	{0.08798796,-0.037952676,0.17200777,0.25377068,-0.1184293,0.07198674,0.0036503451,0.011794928,0.047699682,-0.24464877,-0.1329581,-0.041319042,0.12891431,0.057939693,-0.099775106,0.12018667,-0.24968266,0.056012318,-0.33533278,-0.04611962,0.0882513,-0.38806733,0.3815108,-0.08304321,-0.20217071},
	{0.0010061241,-0.16267763,0.10445098,0.12571977,-0.020893177,0.075580455,0.029415177,0.09768577,0.046585783,-0.083143696,-0.087805495,-0.018246586,0.21705726,-0.030277679,0.11783219,0.08594974,0.037788678,-0.26688543,-0.41150334,-0.017850578,0.05447509,-0.26933476,0.4727142,0.092573896,-0.06793835},
	{-0.0711759,-0.14637777,0.016493913,0.23080818,-0.08507514,-0.052955043,0.113497406,0.12920566,-0.035421994,-0.008278865,-0.106962696,0.013547258,0.108979374,0.043188505,0.09715604,0.103640564,-0.044352513,-0.25000235,-0.1361916,-0.043972965,-0.04412446,-0.23229843,0.41004756,0.12392074,0.0028821481},
	{-0.03315059,-0.023381032,-0.060028646,0.26896945,-0.07718442,0.050626207,-0.00668713,-0.026401952,-0.13710018,-0.10311239,-0.072309226,0.09791041,0.091536075,-0.11215645,0.12892082,0.08419923,-0.02553863,-0.3199172,-0.1616441,0.01472512,-0.069354385,-0.09356235,0.33147553,0.17613675,0.027662596},
	{-0.13445142,-0.08633716,-0.061669502,0.17324948,-0.13449863,0.11221253,0.054760654,0.09806371,-0.22723538,-0.041291468,-0.0963112,-0.09274302,-0.009168599,-0.0709424,0.10089284,0.13421789,0.05581278,-0.37058318,-0.1815281,-0.13601369,-0.06287579,-0.08921268,0.14762028,0.120138116,0.14132132},
	{-0.1334785,-0.1050678,0.029846625,0.16589783,-0.13663964,0.23314515,0.12239739,0.09813784,-0.25362292,-0.042783957,-0.012821168,-0.03708216,-0.1463024,-0.10933091,-0.10034124,0.009900878,0.077791765,-0.3266471,-0.14816411,-0.16661413,0.09021633,-0.116640754,0.2232833,0.19834787,0.10288295},
	{0.0012805741,0.029020164,-0.0029573205,0.044113487,-0.016344685,0.19629978,-0.03712229,0.07324172,-0.45548257,-0.13713896,0.0013149814,0.024448063,-0.3949016,-0.17584601,-0.1827448,-0.23864979,0.028471217,-0.36493582,-0.0177734,-0.066993564,-0.11967494,-0.15030262,0.07445036,0.15765013,0.06896382},
	{0.019854002,0.36071956,-0.12897547,-0.14466938,0.13985334,0.11192558,0.112216644,0.07353275,-0.51245004,-0.3247123,0.021012237,0.16321254,-0.43381393,-0.22438401,-0.29099885,-0.2541388,0.36294305,-0.5353709,-0.0085577965,-0.15845594,-0.09318576,-0.033483695,0.08551924,0.18263845,0.28464177},
	{0.09164186,0.38171786,-0.069442526,-0.07198346,0.1553556,0.07641709,0.2138673,-0.056943815,-0.4024953,-0.27375242,-0.11851308,0.071248256,-0.4135857,-0.09663393,-0.24608882,-0.17279711,0.13028866,-0.510001,-0.16795874,-0.072710834,-0.067065455,0.018132668,0.15077904,0.13770095,0.17870572},
	{0.10126317,0.32254794,0.058113463,-0.10625001,0.25518712,0.1291884,0.2541074,-0.051191635,-0.11616767,-0.14257178,-0.049076296,0.060084973,-0.20715159,-0.025166523,-0.23198652,-0.25167683,-0.10715385,-0.47025228,-0.33125412,0.040113408,-0.19927788,0.005423733,0.33034453,0.15441336,0.124243505},
	{0.15238722,0.28512728,0.14162175,-0.18322141,0.26682672,0.16809367,0.23704918,0.06411,-0.17039879,0.022739165,-0.066133246,-0.021568185,-0.2971691,-0.12622866,-0.30280554,-0.007735794,-0.09012568,-0.19153324,-0.21225218,0.058969673,-0.1942712,0.15221652,0.19081828,0.0909925,0.10433631},
	{0.28353003,0.18704993,0.08763874,-0.03549621,0.4134747,0.3446254,0.13648796,0.23217906,-0.14466907,0.1172668,-0.16498509,-0.07910291,-0.3219515,0.06799173,-0.2074344,0.12245483,-0.17737706,-0.24460216,-0.3247932,-0.15877853,0.11935828,0.07351868,0.2734422,0.21628329,0.051495768},
	{0.25855112,0.13479637,0.17096591,-0.048469428,0.29979223,0.16944389,-0.09677515,0.19458702,-0.21924973,0.12239269,0.005128802,0.06843659,-0.22333708,0.019425647,0.023547022,-0.06394045,-0.01463869,-0.09734257,-0.2336997,-0.091179594,0.09309397,0.022714473,0.24034274,0.16342731,0.02620959},
	{0.14896831,0.2009235,0.21701615,-0.026420405,0.18308416,0.21051838,-0.14011823,0.12465972,-0.19455151,0.07093234,-0.14943917,0.12516314,-0.09235477,-0.060754776,0.09449598,0.009098669,0.13209867,-0.18164879,-0.15673928,-0.15768608,0.17885178,-0.054453474,0.34350875,0.036483113,-0.040304873},
	{-0.21743584,0.07148763,0.112805255,0.043486144,0.24934024,-0.011181841,-0.13861203,0.01279609,-0.18547362,0.081805125,-0.03397693,0.025790483,-0.09955051,0.06709698,0.10685267,-0.07036298,0.15679938,-0.044284783,-0.18244614,-0.006873018,0.17884468,0.0006289915,0.24624373,0.11947937,0.07572506},
	{-0.6158605,-0.13520508,0.09447659,-0.04294221,0.061216723,0.15356132,-0.29169065,0.18319371,-0.06213891,0.06537936,-0.13899378,0.12847461,-0.16362026,-0.036402296,0.2024194,-0.08683111,0.10312606,0.010931029,-0.17227514,-0.071471386,0.13625553,-0.1429739,0.2228105,0.16071986,0.03127731},
	{-0.88737035,-0.52096194,0.22367139,-0.061278928,0.16091613,0.47382593,-0.35331804,0.05072552,0.17035106,0.16992165,0.11671538,-0.048286885,0.2689825,0.035047572,0.18406363,-0.16155705,0.0008927043,-0.0867995,-0.40837806,-0.3010937,0.1662727,-0.14812113,0.33737668,0.10540621,-0.045798942},
	{-0.8727138,-0.8949818,0.42165726,-0.18721369,-0.020773629,0.6666189,-0.5571054,0.28361523,0.27691084,0.45296183,-0.05853253,-0.079115234,0.5923217,0.064406045,0.31991592,-0.44993523,0.26721114,-0.16081323,-0.45117682,-0.42458892,0.54851,0.009444994,0.39785984,0.32921883,-0.061046828},
	{-0.4501865,-0.58540744,0.30407768,-0.3162729,-0.13682473,0.3730618,-0.3632352,0.18956888,0.104932755,0.5567077,0.036070548,-0.06684242,0.5852628,0.051659048,0.21821652,-0.21939464,0.41034013,-0.10095949,-0.31264335,-0.31196156,0.68786263,0.11321363,0.428016,0.38672838,-0.0024402386},
	{-0.07954561,-0.1134979,0.091672644,-0.09673539,-0.056181956,0.06325829,-0.05389705,0.08142674,-0.029759,0.1655287,-0.003645784,0.0147782955,0.09756754,0.07932051,0.067597896,-0.10120423,0.04791916,-0.043592338,-0.049641263,-0.10643361,0.09086892,0.004607802,0.18846314,0.10500595,0.04325765},
	{-0.03782697,-0.043321006,0.07343049,0.047030825,-0.009270772,0.023570726,0.0689676,0.065293744,-0.047879186,0.04307675,-0.01152634,0.016249483,-0.027254723,0.07656497,0.029947579,0.017145526,-0.037155647,-0.06513568,0.037072126,0.018805875,-0.046350446,-0.052453294,0.017131703,0.016546821,0.10074578},
	{-0.03878743,-0.0029951064,0.0545008,0.052153833,-0.028475009,0.041550923,0.012938731,-0.037032463,-0.038138293,0.035655797,-0.08047,-0.08361885,0.023619918,0.05371426,-0.042109977,-0.06021439,-0.058962546,-0.046364643,0.08111262,0.050059386,-0.048556045,-0.04316461,-0.042880267,-0.057773434,0.030825853},
	{0.057594143,0.008987763,0.010027572,0.060761414,-0.052744616,0.11757241,-0.06801682,0.09241754,-0.0010438078,-0.09522299,-0.014278851,0.03705873,0.08609998,-0.022816285,-0.007164225,0.037942823,-0.07981048,-0.04956763,-0.1085819,-0.09696865,-0.02767189,0.0052958294,-0.016630303,0.026097126,-0.0030735827},
	{0.0722252,0.10760546,0.07629577,0.036976654,-0.120207354,0.056853887,0.09320413,0.05502421,0.05196289,-0.039777625,-0.054675117,0.08853967,0.03457293,-0.06071715,-0.03392106,0.19098705,0.017574528,-0.03347214,-0.10209933,-0.09838673,-0.05869631,-0.020777913,0.012160929,0.022174105,-0.09100527},
	{0.15778747,0.14661817,0.1554067,0.17986025,-0.2556043,0.18125282,0.105955265,0.10998806,-0.19142441,-0.25245377,-0.12448775,0.2512818,-0.15508638,-0.022328632,-0.08335745,0.35406974,-0.055402618,-0.09818584,-0.24965866,-0.13188486,0.103925176,-0.13685772,0.17358387,0.030789347,-0.054096323},
	{0.38818988,0.39812592,0.07333262,0.052704018,-0.5048218,0.02160104,-0.04244563,0.0030734432,-0.2669644,-0.33643937,-0.25082242,0.3362469,-0.19993916,0.08635591,0.037181653,0.3812986,-0.37978932,-0.019691495,-0.19396509,-0.107492015,0.031920537,-0.12980688,0.21464498,-0.011554023,-0.20387508},
	{0.30235127,0.16385137,-0.0941693,0.19106112,-0.28431076,0.06927016,-0.06354713,0.022937737,-0.17128623,-0.31917548,-0.11166224,0.28122067,-0.11322961,-0.10349718,-0.06331228,0.25396612,-0.35496113,0.07706761,-0.20730019,0.032371968,-0.036938876,-0.39228755,0.26883155,-0.0042358637,-0.18592675},
	{0.12616308,-0.059146952,0.032557596,0.21841764,-0.17739072,0.04719013,0.086148486,-0.07737213,-0.163794,-0.24484281,0.065431245,0.042525247,0.07427459,0.08300872,-0.10272516,-0.0006551168,-0.06682841,0.01536739,-0.19343664,-0.0979965,0.03168164,-0.25773305,0.358144,0.08704392,0.00328278},
	{0.04153718,-0.13056503,0.18512087,0.13013066,-0.09724956,0.034769345,0.1802768,-0.09688869,-0.08089929,-0.0076512843,0.023604235,0.006708037,0.13435498,-0.0075547653,0.032571014,-0.01704184,-0.08837894,-0.16168447,-0.25640225,-0.049226187,0.06803844,-0.17649806,0.30400723,0.020711191,0.104636826},
	{-0.11421206,-0.20502427,0.15372536,0.04954844,-0.16874415,-0.016573546,0.17259979,0.004623622,0.06370442,0.06872973,-0.074421376,0.063111246,0.25980428,0.050225005,0.14899029,0.13329953,-0.008897836,-0.14043795,-0.1694052,-0.023625456,0.10520103,-0.08027006,0.31557155,0.112034865,0.28571036},
	{-0.24380733,-0.22077888,0.010297905,0.16832945,-0.091178626,0.040095367,0.12254103,-0.035990458,0.026417622,0.13747393,-0.044207074,0.010116328,0.17896847,-0.14391297,0.23605944,0.11029194,-0.08220102,-0.25867274,-0.12709963,-0.09108341,0.042532578,-0.26041013,0.26925373,0.07359634,0.14891888},
	{-0.221724,-0.19303943,-0.05881457,0.17035864,0.040598646,0.088292725,0.07573861,0.0891709,0.07978976,0.09751429,0.10867536,-0.12312322,0.23060712,-0.11027045,0.11285803,0.03281125,-0.044993248,-0.330265,-0.0964072,-0.07988753,0.037926186,-0.19445153,0.18246482,-0.013574022,0.14679302},
	{-0.100989796,-0.21755928,-0.14484139,0.15004046,-0.005678011,0.25292763,0.05262694,0.06963174,-0.059844922,0.12210382,0.27430263,-0.30863768,0.3388604,-0.18350296,0.025618672,-0.021947743,0.12715954,-0.32932067,-0.029855354,-0.17462765,0.07466562,-0.12957537,0.28348348,0.028052863,0.13032594},
	{-0.09132167,-0.24364309,-0.122341946,0.16242346,0.060711443,0.24457511,-0.0021741786,0.061126936,-0.06781921,0.11836537,0.19351125,-0.31546438,0.08716539,-0.12607902,-0.14714731,-0.025824884,0.10683633,-0.22928718,-0.075301684,-0.17717963,0.057901155,-0.0749648,0.19445336,-0.071015954,0.11075996},
	{0.0735624,0.038011577,-0.13103716,-0.021611538,-0.05071995,0.23087032,0.06112453,0.08540026,-0.3125328,-0.14609283,0.04653366,-0.023114594,-0.40314296,-0.28469208,-0.2672242,-0.16038162,0.10137747,-0.3209958,0.02039,-0.4146433,0.043576155,-0.048201606,0.07861372,-0.01921343,0.19005305},
	{0.27919596,0.5110705,-0.065464176,-0.18064053,-0.030584853,0.19879153,0.30515808,0.091330044,-0.45462823,-0.3163654,0.039718714,0.3337118,-0.5292813,-0.39662603,-0.30653736,0.001965579,0.1526282,-0.3195633,-0.029794635,-0.3099388,-0.05520241,0.02044685,0.07266204,-0.079269916,0.27475402},
	{0.3582947,0.66312975,-0.121135585,-0.19757262,0.20380132,0.04006965,0.38653877,0.15848312,-0.26886398,-0.29737893,-0.15301967,0.156491,-0.42578152,-0.3350225,-0.26197404,0.067703016,-0.11612456,-0.24121958,-0.07602618,-0.10544849,-0.08513271,0.13984334,-0.016028222,0.024696069,0.04135036},
	{0.3547442,0.63171875,-0.046626363,-0.09481268,0.1816085,0.13267437,0.33129552,0.15822926,0.038657866,-0.13410978,-0.18735245,0.107143514,-0.32807827,-0.3197993,-0.13619956,0.18477315,-0.52650374,-0.015261925,-0.3325266,-0.06454185,0.009803148,0.08360517,0.115546584,0.0206671,-0.081425175},
	{0.45209014,0.4161786,0.04411633,-0.001367172,0.15054478,0.22821371,0.22074614,0.26310158,-0.042324103,0.043193743,-0.18226397,0.012993605,-0.23622677,-0.18729065,-0.21654734,0.10460938,-0.7201773,-0.037899997,-0.30423823,0.029329048,-0.0604612,0.05704407,0.3610935,0.084298134,-0.12120226},
	{0.32399422,0.42830873,-0.05012845,0.01625238,0.286325,0.2761279,0.0127304755,0.19893764,0.013264862,0.06286004,-0.045783665,-0.008239173,-0.22644538,-0.09664011,-0.03675305,-0.055052605,-0.7333254,-0.033099655,-0.15632206,0.011411911,0.100106716,-0.028850371,0.316977,0.04027995,-0.10259074},
	{0.2633245,0.24359904,0.12949003,0.07828667,0.23861273,0.17927814,-0.037630353,0.15333247,0.005395322,0.08312139,0.00023652817,0.07756404,-0.1847861,-0.0935232,-0.015860341,-0.054456525,-0.80830497,-0.15823118,-0.25381187,-0.0775738,0.1697467,-0.065179534,0.24333741,0.016924541,-0.09916311},
	{0.1185942,0.2691371,0.17891894,0.094857514,0.14120355,0.079591274,-0.14568993,0.06930795,0.0081171235,0.020519892,-0.13238424,0.05996155,-0.044854674,0.054290548,0.019104773,-0.08545943,-0.7463238,-0.11937113,-0.17731595,-0.10722152,0.1359479,-0.049915105,0.2647927,0.079934485,-0.0059261834},
	{-0.3283355,0.1729235,0.16308627,-0.03675582,0.09193587,0.04569789,-0.14293504,0.14097576,0.031268276,0.023452561,-0.09854885,0.19405414,0.05828055,0.11698796,0.10646851,-0.047478877,-0.5391628,-0.053533424,-0.2751414,-0.13709545,0.20827356,-0.13352469,0.44703332,0.01661355,-0.14120507},
	{-0.62467647,0.004419589,0.19079898,-0.07675298,-0.00047264874,0.15846126,-0.13536091,0.12152434,-0.009315398,0.017656414,-0.25001767,0.35052705,0.09633564,0.1901486,0.055394936,-0.15438327,-0.6358785,-0.029288903,-0.26447555,-0.0075592687,0.17700106,-0.08652674,0.35406902,0.18675204,-0.16907421},
	{-1.0346808,-0.40757486,0.2555845,-0.11850776,0.06524867,0.43058664,-0.49062806,0.05754445,0.083762765,0.25799087,0.028623499,0.11936471,0.16125526,0.06137686,0.26471335,-0.2843646,-0.4764198,-0.11123348,-0.3623414,-0.24010447,0.19781657,-0.0056890543,0.5969074,0.20368792,-0.012476042},
	{-0.80482084,-0.8416459,0.49121156,-0.38441893,-0.059473585,0.7901101,-0.52995324,0.4021796,0.20296173,0.48168448,0.073419385,-0.030638486,0.6367102,0.024796793,0.18962888,-0.34899014,-0.18665789,-0.3303362,-0.7012826,-0.4747636,0.44575638,0.27472553,0.6753921,0.40004888,-0.047783084},
	{-0.47969663,-0.65897954,0.15391056,-0.4847338,-0.28438008,0.44662014,-0.43522495,0.3516831,0.012526575,0.72774124,0.006295073,-0.00018810076,0.5902153,-0.017593466,0.12801717,-0.2128468,0.14824405,-0.33765155,-0.47662324,-0.47585258,0.63288,0.17841794,0.6407653,0.48847657,-0.03682399},
	{-0.1771723,-0.20299523,-0.011509474,-0.24080777,-0.050833978,0.115784906,-0.10287314,0.1444972,0.027351078,0.20408475,-0.06026247,0.12659523,0.18347673,-0.06648843,0.008011798,-0.13571155,0.04063833,-0.09273186,-0.29432943,-0.10007682,0.2988492,0.08574175,0.32676658,0.10511224,0.054672092},
	{-0.05466358,0.007557734,-0.0276378,-0.059792742,0.017122367,0.06795143,-0.06637177,0.042727694,0.022056585,0.0753466,-0.077019826,-0.053424686,0.03948809,0.008404627,-0.010218088,-0.033520907,-0.032569986,0.05761264,0.054653667,0.05981292,0.012839223,0.072296984,0.028343134,-0.053523365,0.061624818},
	{0.0061920886,-0.004486685,-0.064322084,-0.029814905,-0.078328684,0.017969774,0.051298708,-0.07517823,0.022316331,-0.0012925002,0.039768424,0.015843192,-0.07123072,-0.0025211985,0.04344996,0.026814561,0.024593035,-0.01826471,-0.060497805,0.009385106,-0.048164897,-0.046710867,-0.030347757,0.010374906,-0.032011848},
	{-0.007846634,0.0004936686,-0.0088424,0.032988153,0.043177474,-0.005920812,0.07080756,0.08207336,-0.0598092,-0.07807845,0.0030369714,0.061960913,0.028850026,-0.0886681,-0.097514465,0.03552702,0.05309727,-0.04393556,-0.10775821,0.050361402,0.082487874,-0.011213541,0.0008153108,-0.067517355,0.050920464},
	{0.11151684,0.08901648,0.012293886,0.20704786,-0.13349767,0.05330785,0.054463882,0.090194575,-0.02261825,-0.1966892,-0.07599876,0.0062634614,0.05190119,-0.056560513,-0.060629293,0.07634184,-0.053408567,-0.06596837,-0.038022928,-0.072552174,0.016789291,-0.05164634,0.050885413,-0.040955916,0.013738391},
	{0.13075726,0.24383788,0.11006211,0.1305721,-0.27331284,0.16875212,0.12169112,0.043395616,-0.20107631,-0.2506183,-0.18265136,0.09551035,-0.12458016,0.087301984,-0.047781575,0.26423362,-0.036450192,-0.1041071,-0.29745477,-0.24698897,0.11405317,-0.092493705,0.078235745,0.12323057,-0.16354838},
	{0.1270871,0.11125349,0.032164402,0.22904387,-0.18689129,0.06461891,-0.09210513,-0.043998376,-0.14790358,-0.33214822,-0.056851145,0.14630385,0.012100552,0.17345637,0.073497705,0.31385896,-0.15036239,0.08851441,-0.25939548,-0.19871326,0.16359122,-0.20740017,0.3319515,-0.11286179,-0.15595941},
	{0.13127919,0.12867859,-0.016954076,0.22251084,-0.2133819,0.08646495,0.09090167,-0.077376984,-0.22734897,-0.2666064,0.10101326,0.06722178,0.20031193,0.07796163,-0.024290184,0.20437594,-0.18253759,0.014011127,-0.21399626,-0.101261094,0.059177794,-0.3515745,0.20931125,-0.030053163,0.053680822},
	{-0.015622984,-0.14311516,0.027564868,0.19338125,-0.123951465,0.03798873,0.22325823,-0.11884586,-0.22928008,-0.14923495,0.081023246,0.07321431,0.27953947,0.18314782,0.01476641,0.10565362,-0.06135657,-0.1593695,-0.13601232,-0.06852351,0.06339518,-0.2597463,0.24246784,-0.06681294,0.3730975},
	{-0.038695388,-0.27793992,0.11688956,0.11788936,-0.03827539,0.118196145,0.21511848,-0.09179465,-0.032831978,0.12196766,0.10947976,-0.05082012,0.38562775,-0.032222174,0.03968149,0.10877624,-0.060486626,-0.104714766,-0.11541151,-0.034657147,0.106896326,-0.091067635,0.14861923,-0.10606051,0.47814032},
	{-0.23825492,-0.31791797,0.0539967,0.11753679,0.023927344,0.15194222,0.095097184,-0.12770554,0.17548215,0.22435337,0.107549645,-0.11329525,0.2048136,0.02931193,0.018379407,0.06598045,-0.013776232,-0.041007128,0.050833695,-0.052043203,0.045276023,-0.14014953,0.03464979,-0.079576455,0.41793773},
	{-0.31046242,-0.3012392,0.036292076,0.27416176,0.16443369,0.21429367,0.032192327,0.058436505,0.20537081,0.27742517,0.1403416,-0.12665729,0.49238402,-0.09398915,0.09050159,0.03004914,0.060152154,-0.046727326,-0.025311781,-0.009711802,0.11169397,-0.19185607,0.17532653,-0.15689793,0.24702902},
	{-0.23189501,-0.34955004,-0.060796887,0.27679917,0.118096545,0.20983781,0.20959747,0.036376648,0.19744101,0.23866972,0.2022228,-0.2652794,0.63054144,-0.14031371,-0.06166876,0.08711633,0.079092406,-0.091866665,-0.037927467,-0.14980227,0.2302659,-0.10183455,0.09337115,-0.26103756,0.3450374},
	{-0.08694827,-0.37949628,0.00554891,0.09969762,0.18952256,0.32222483,0.0044918475,0.08829487,0.26344398,0.3637299,0.31959373,-0.54896516,0.49542236,-0.06654132,0.0018652268,-0.015300681,0.09968987,-0.053741537,-0.04851004,-0.13166714,0.14264634,-0.050394412,0.13711278,-0.2244094,0.33119577},
	{-0.08228895,-0.36378714,-0.031441357,0.008117072,0.1424664,0.28599077,-0.06158093,0.16091011,0.19597973,0.16748823,0.14598526,-0.38376695,0.3064989,-0.118755,-0.15354073,-0.20330858,0.18391117,-0.008839623,0.057388283,-0.31791922,0.18648982,-0.07483683,0.05825011,-0.2890597,0.34177873},
	{0.16735858,-0.34683064,0.008048402,-0.17755704,-0.045156706,0.37772,0.026473904,0.1701809,-0.122987054,-0.16287519,0.08197617,0.03982593,-0.16530408,-0.24574938,-0.21020524,-0.1441077,0.2174571,-0.03927864,-0.22889279,-0.3731651,0.19983728,0.086497836,0.10078937,-0.3120654,0.2909172},
	{0.28925726,0.2148434,-0.11780299,-0.29033476,-0.11423816,0.3091813,0.26698408,0.02456457,-0.45323268,-0.1638394,-0.06951183,0.51186466,-0.38246858,-0.3857936,-0.42887965,0.16347815,0.09177958,-0.17120181,-0.382813,-0.23651119,0.28452975,0.21539365,-0.014059703,-0.21395192,0.20435856},
	{0.2954533,0.38947493,-0.22327238,-0.42438284,0.04567716,0.015202431,0.40032652,0.21538857,-0.058622256,-0.13839188,-0.1391035,0.19528234,-0.17637774,-0.21760543,-0.24410807,0.28226492,-0.42726517,0.1502188,-0.42175537,-0.08566703,0.27699855,0.36242738,-0.06663339,-0.20315966,-0.044804946},
	{0.40985548,0.5591183,-0.18156315,-0.15681866,0.23706126,0.089082085,0.34135845,0.29191792,0.08051212,-0.13273393,-0.26688752,0.023325967,-0.14931898,-0.12439183,-0.16696087,0.3633193,-0.8219693,0.07471219,-0.41908923,0.10100063,0.14986587,0.25541046,0.080695614,-0.13054614,-0.26106498},
	{0.45545796,0.45067412,-0.08727576,-0.07337364,0.21362741,0.041092407,0.2722191,0.21789527,0.074830316,-0.0896119,-0.11744003,-0.012782883,-0.108927466,-0.21894076,-0.06867542,0.2282344,-0.918612,0.06819307,-0.21254176,0.13628098,0.049745377,0.07285278,0.308563,-0.015773311,-0.17712688},
	{0.4550983,0.33483917,0.025201324,-0.070991606,0.18428746,0.18293539,0.15778862,0.1641259,0.072779655,-0.09078983,-0.059081666,0.05961078,-0.12446078,-0.078528225,-0.12291103,0.043487538,-0.9744552,0.004886045,-0.24881478,0.020786528,0.0832388,-0.20220505,0.27076778,0.03340313,-0.0035178678},
	{0.44395396,0.29149312,0.04146904,-0.06808783,0.15750173,0.095213376,-0.01533073,-0.007470898,0.0013817479,-0.17576265,-0.13685173,0.07472479,-0.035985753,-0.077229924,-0.1483213,-0.05760485,-1.3875582,0.0021293948,-0.23853073,0.13043466,0.033621307,-0.17861024,0.13029647,-0.06851138,0.06880044},
	{-0.006745509,0.37692076,0.250571,0.11882429,0.105875716,-0.014023306,-0.007553604,0.074491926,-0.009173133,-0.19882295,-0.17886285,0.22224112,-0.03972394,-0.12092121,-0.14555931,-0.14913347,-1.4812005,0.04123912,-0.22179273,-0.07000496,0.14020742,-0.1313618,0.3754983,-0.15478009,-0.010687675},
	{-0.3753999,0.26958773,0.17658725,0.1003364,0.121243834,0.22443475,-0.019170955,0.12318756,-0.029825471,-0.11792584,-0.19715483,0.08582123,-0.089386135,-0.073617354,-0.19147268,-0.13108402,-1.392657,0.038545575,-0.14415663,0.003823098,0.07512613,-0.1557637,0.33340847,-0.19504757,-0.07985257},
	{-0.70164204,0.22129774,0.10144355,0.0666839,0.122155786,0.3106636,-0.1380632,0.032634564,-0.0063736998,-0.019870799,-0.12456107,0.19896397,-0.15495951,0.09944778,-0.15727791,-0.24441355,-1.3471882,-0.12341388,-0.31970763,0.02728599,0.15363963,-0.057769638,0.40023357,-0.09171924,-0.027123589},
	{-0.8993299,-0.2236572,0.33565575,-0.23494989,0.18813992,0.58231765,-0.44104427,0.20156021,0.06425521,0.07416032,0.16308986,0.14832573,0.09029816,-0.02158187,0.059868142,-0.40582663,-1.0849191,-0.30754378,-0.55944467,-0.090758875,0.11552576,0.067603104,0.63173354,-0.046460047,0.108039595},
	{-0.881255,-0.74040043,0.2776524,-0.5020709,-0.061025944,0.5734577,-0.5107767,0.405106,0.21974964,0.45668104,0.16625562,0.0641103,0.45022935,-0.06777097,0.18996072,-0.4624014,-0.52792937,-0.4691512,-0.60829055,-0.34630513,0.29844663,0.43382925,0.6637928,0.27401796,-0.13803369},
	{-0.44769776,-0.5270209,0.07789885,-0.48495495,-0.20563419,0.41518795,-0.22983633,0.67331153,0.055868454,0.63596445,0.052508146,0.13416263,0.4112037,-0.18123978,0.13575092,-0.21689586,-0.0443729,-0.38184616,-0.4578762,-0.5217283,0.62265635,0.3259457,0.47604394,0.33347267,-0.07783404},
	{-0.14493084,-0.17255092,0.053468063,-0.2868929,-0.06015512,0.08636178,-0.15598749,0.23509167,0.015334157,0.31121925,0.06897323,0.09804288,0.09137568,-0.095237866,-0.0016549543,-0.053598892,0.04832087,-0.17239496,-0.21467817,-0.22587593,0.3009606,0.10987044,0.15202712,0.1334919,0.062149554},
	{0.064753234,-0.04514447,0.030716091,-0.057856377,-0.026097877,0.02655275,0.07183492,0.06898314,0.018978111,-0.034842778,0.041041646,0.07257496,0.02146189,0.04686458,0.028099637,-0.04436936,0.02405061,-0.048416834,-0.06515455,0.0020895489,0.045100145,-0.004192612,-0.045297947,0.024768962,-0.074153356},
	{0.0046180054,0.06887065,0.048566367,0.048792757,0.034792185,-0.06768716,-0.043331236,0.01646049,-0.072808236,-0.024079692,0.027870612,0.01752313,-0.066221274,0.072689034,-0.083010696,0.021588556,-0.06077531,-0.040994212,-0.03811215,0.05407429,0.08139223,-0.064810015,-0.017418368,-0.03480797,-0.05019369},
	{0.0200555,-0.0171621,0.06446678,-0.0155672515,0.048452746,0.04619256,0.046487946,0.07092296,-0.05943367,-0.028524928,-0.039381385,0.07256397,-0.018160487,0.0011760861,-0.0038951538,0.011603294,0.035708398,-0.07077166,-0.07109275,0.044185743,-0.015010699,0.046969783,-0.008709626,-0.034476668,-0.09060117},
	{0.080747604,0.026092084,-0.026785783,0.17609331,-0.062452637,0.09220715,0.12251088,0.048763607,-0.10230422,-0.23327826,-0.023492184,0.08553458,-0.034527514,-0.018167196,-0.15383737,0.20021617,-0.034703333,0.08913925,-0.17743057,-0.06792745,0.08522197,-0.099443585,-0.021173099,-0.017698122,-0.04413042},
	{0.21517289,0.17574196,0.14645785,0.14167076,-0.017247595,0.068201154,0.048554566,0.03932223,-0.023322396,-0.24828485,-0.2805065,-0.001905526,0.03457016,0.019581633,-0.17224655,0.42239416,-0.13227202,0.05181739,-0.13197462,-0.27527648,0.11700772,-0.11081121,0.064820796,-0.05616847,-0.0491369},
	{0.14991304,0.13866377,-0.10990452,0.37845632,-0.08717227,0.14402342,0.12095331,0.08975236,-0.13108732,-0.3330104,-0.16755149,0.017854942,0.18554361,0.11719284,-0.17079267,0.27083066,-0.035456423,0.035136655,-0.16488154,-0.03439293,0.23413968,-0.19929025,0.10050511,-0.028447885,0.17248231},
	{-0.027351432,-0.06568011,-0.13872218,0.41251376,-0.0024629012,0.03893924,0.15017636,-0.0797288,-0.053193666,-0.071483016,0.09865571,-0.15080708,0.43742245,0.19069599,-0.12784559,0.0016530623,0.0031537923,-0.07161388,0.049749807,0.037201677,0.04154158,-0.28663462,0.006406923,-0.27301344,0.308731},
	{-0.041829538,-0.35855535,0.034353886,0.36419377,0.22945717,0.09153366,0.23119612,-0.08537739,-0.053642504,0.09584759,0.10794317,-0.28593096,0.6306132,0.1584815,-0.06764966,-0.06803863,0.10392874,-0.10522915,-0.037926394,0.0066429237,0.17737323,-0.093753785,0.016778875,-0.24285129,0.4434353},
	{-0.11198376,-0.44972157,0.19382139,0.32347387,0.38288963,0.16919486,0.20402204,-0.02364342,0.16542937,0.12415509,0.056215033,-0.21360612,0.5747027,0.18235783,-0.03692718,0.10504642,0.1307157,-0.079771794,-0.03125759,0.07360525,0.05937053,-0.055753693,-0.060800746,-0.4003531,0.49189147},
	{-0.2810054,-0.49277633,0.23377989,0.22553289,0.34222105,0.17935163,0.02886815,0.0095071085,0.19011253,0.26278567,0.15055731,-0.24718697,0.50636435,0.070109874,0.015577228,-0.1592833,0.15954086,0.051574226,0.009618826,0.035569042,0.16869721,0.01620565,-0.058591846,-0.22051328,0.40976694},
	{-0.15805262,-0.3997006,0.2809417,0.34931684,0.3468066,0.05075361,-0.03987874,0.035927597,0.35368744,0.26342028,0.15151611,-0.3082204,0.56840414,0.20491832,-0.06015938,0.027320417,0.04751539,0.16806315,0.055359695,-0.1182448,0.34920692,-0.16833837,-0.106873155,-0.30895314,0.3579694},
	{0.018929468,-0.19258197,0.23862647,0.24407907,0.382095,0.18296704,0.0044151885,0.035573892,0.34852687,0.19764552,0.016744366,-0.51120394,0.5327914,0.14420356,-0.036138907,0.0035244438,0.07959742,0.08471091,0.015476745,-0.22661422,0.26616657,-0.12314293,-0.06817114,-0.34072387,0.34288216},
	{0.11435675,-0.20925874,0.17921527,0.028849125,0.38882464,0.20259458,-0.080337524,0.12030486,0.37581673,0.223371,-0.017446544,-0.49895486,0.5680828,0.22872752,-0.06445888,-0.21146679,0.037108585,0.05570163,-0.07678412,-0.2094104,0.24714965,-0.09836299,-0.054309703,-0.21427014,0.3146327},
	{0.12056066,-0.39127085,0.17176701,-0.15765996,0.20969482,0.33415094,-0.23299614,0.22699139,0.21768695,0.12719789,-0.01999065,-0.36409926,0.46289563,0.38035163,0.11025878,-0.3939126,0.038422536,0.24458368,-0.20760371,-0.15733314,0.3877329,0.13036682,-0.09122947,-0.30233404,0.07455135},
	{0.105948515,-0.59403276,0.2338467,-0.4317175,-0.055282656,0.37920567,-0.14451294,-0.03426069,-0.23363276,-0.01643216,0.010999836,0.41653663,0.075238235,0.2046921,-0.24112283,-0.3672545,0.22891282,0.12403654,-0.6489042,-0.12675397,0.4697498,0.35328186,-0.031975225,-0.3390633,0.17211436},
	{0.26164544,-0.29126826,0.06029197,-0.29891112,-0.21745273,0.1580449,0.25241262,0.013435285,-0.43116486,0.09464078,-0.07794861,0.5959192,-0.18890558,0.14636381,-0.5046325,0.048169166,-0.12433496,0.18532306,-0.7389696,-0.14254992,0.52733755,0.3432829,-0.12399281,-0.44187936,0.23660308},
	{0.36506066,0.099904805,-0.16809006,-0.42313337,0.1484096,-0.08458808,0.47567755,0.32665133,-0.14208704,0.16492908,-0.27922705,-0.0050555235,0.031745132,0.11066883,-0.27056077,0.238161,-0.3729208,0.20080721,-0.51423156,0.07477693,0.48858002,0.23901951,-0.30911422,-0.42152563,0.02707725},
	{0.2620128,0.16563404,-0.0055665206,-0.15507928,0.13719101,-0.08801983,0.23639059,0.26536667,0.058649626,0.0449001,-0.30036554,-0.26907337,0.05137948,0.04802461,-0.11634442,0.18871301,-0.22433865,0.22150081,-0.29752073,0.26848635,0.2467591,-0.08707477,-0.21951419,-0.2720539,-0.20133224},
	{0.3286864,0.30385172,-0.0025690664,-0.015347893,0.16148569,-0.0093073035,0.2189266,0.14163147,-0.063460805,-0.15216035,-0.40025997,-0.31647658,0.09052304,0.04249551,-0.20041826,0.11517781,-0.21194723,-0.12966876,-0.12643877,0.20061034,0.21411793,-0.22726695,-0.035999473,-0.19293746,-0.14488299},
	{0.32492378,0.2502582,0.057580736,-0.1133127,0.1937619,-0.07656279,0.28629526,-0.030922655,-0.016851386,-0.29601443,-0.30918875,-0.1763131,0.004987652,0.012361297,-0.2808539,0.12173738,-0.24994658,-0.048251484,-0.06142135,-0.018714799,0.19085515,-0.2783544,0.025535315,-0.19479866,0.18237881},
	{0.21787731,0.21130541,0.036334224,0.055569865,0.086515404,-0.16515586,0.2416363,-0.20962878,0.024488043,-0.088050336,-0.04038094,-0.04028239,-0.04492546,0.088925,-0.3313722,-0.05152223,-0.43552715,0.048536062,-0.029375473,0.16264345,-0.006762269,-0.1510494,-0.03397992,-0.1727445,0.04936254},
	{0.0146253,0.29585212,0.026269542,0.20368229,0.023810409,-0.027655492,0.35128838,-0.22499894,-0.12909248,-0.24614657,-0.12988399,0.018283447,-0.08992169,0.09275773,-0.3832671,-0.09916797,-0.84880805,-0.11455222,0.030935608,0.1271467,0.056084767,-0.18214692,-0.12092042,-0.40770665,0.16672492},
	{-0.34243035,0.22775538,0.077821665,0.27849212,0.17860042,0.21776189,0.38144362,-0.19190137,0.1493272,-0.29310352,0.1525913,-0.020823771,0.0048855194,-0.062368426,-0.38831732,-0.2084194,-1.1690935,-0.06430826,-0.0066394773,0.19744582,-0.10425132,-0.0797559,-0.15757088,-0.53470343,0.13013336},
